{
  "cnn_weights": [
    0.255864679813385,
    0.09295383840799332,
    -0.11665795743465424,
    -0.20952732861042023,
    -0.2244289070367813,
    -0.2113368809223175,
    -0.29394638538360596,
    0.2651269733905792,
    -0.1195194348692894,
    -0.29394638538360596,
    -0.2651269733905792,
    0.2651269733905792,
    -0.10419563204050064,
    -0.17671629786491394,
    -0.021940136328339577,
    0.2651269733905792,
    -0.17366290092468262,
    -0.19658248126506805,
    -0.04126012325286865,
    0.24274007976055145,
    0.05579686537384987,
    -0.23007403314113617,
    0.1368352472782135,
    -0.19372496008872986,
    -0.11785376071929932,
    -0.11435601115226746,
    0.06983595341444016,
    -0.27998867630958557,
    -0.1906784027814865,
    0.2651269733905792,
    -0.2651269733905792,
    0.2651269733905792,
    -0.10783154517412186,
    -0.004139238968491554,
    -0.2537819743156433,
    -0.2678068280220032,
    -0.02153817005455494,
    -0.13831187784671783,
    0.16523294150829315,
    -0.2651269733905792,
    -0.19585725665092468,
    0.10564060509204865,
    0.25568515062332153,
    -0.22911286354064941,
    0.30190882086753845,
    0.18548062443733215,
    -0.17041005194187164,
    -0.0815029963850975,
    -0.14118625223636627,
    0.15597356855869293,
    0.2651269733905792,
    -0.03698362410068512,
    0.018340446054935455,
    -0.2651269733905792,
    -0.018925534561276436,
    -0.0333869643509388,
    -0.2651269733905792,
    -0.1488564908504486,
    0.043051667511463165,
    -0.054209429770708084,
    0.10827445238828659,
    0.1931355893611908,
    0.2651269733905792,
    -0.2651269733905792,
    -0.27998867630958557,
    0.2651269733905792,
    0.252755343914032,
    0.04035014659166336,
    0.2651269733905792,
    0.2940874695777893,
    -0.05279747024178505,
    0.25775375962257385,
    -0.014701218344271183,
    -0.012353870086371899,
    -0.1251220554113388,
    0.10640760511159897,
    0.2678068280220032,
    0.030023610219359398,
    -0.21270178258419037,
    0.025164516642689705,
    -0.15864834189414978,
    0.2651269733905792,
    0.2651269733905792,
    0.2651269733905792,
    -0.11041305959224701,
    0.2651269733905792,
    0.010225474834442139,
    0.1594705432653427,
    0.2651269733905792,
    -0.2651269733905792,
    0.23512692749500275,
    -0.20377643406391144,
    -0.2651269733905792,
    0.2651269733905792,
    0.11714465916156769,
    -0.2668573260307312,
    0.09128471463918686,
    0.21496808528900146,
    0.2651269733905792,
    0.12720517814159393,
    -0.09590468555688858,
    0.2651269733905792,
    0.1754511296749115,
    0.20385031402111053,
    0.2651269733905792,
    0.22085464000701904,
    -0.2651269733905792,
    0.09689702093601227,
    -0.07253734767436981,
    0.2651269733905792,
    0.1499425768852234,
    -0.1397767961025238,
    0.08838953822851181,
    0.2651269733905792,
    -0.16788722574710846,
    -0.066380575299263,
    -0.16678890585899353,
    -0.2190537452697754,
    -0.2651269733905792,
    -0.2651269733905792,
    -0.09759486466646194,
    -0.2651269733905792,
    -0.09074384719133377,
    -0.2651269733905792,
    -0.013025078922510147,
    0.05280163511633873,
    0.20970916748046875,
    -0.057668302208185196,
    -0.02340681664645672,
    0.2651269733905792,
    0.055048562586307526,
    -0.26326292753219604,
    0.26704466342926025,
    0.22973836958408356,
    -0.18186019361019135,
    0.05042262375354767,
    0.2651269733905792,
    0.24743437767028809,
    0.2651269733905792,
    0.22134055197238922,
    -0.2651269733905792,
    -0.18880149722099304,
    0.11872203648090363,
    -0.23900564014911652,
    0.12700402736663818,
    0.26704466342926025,
    0.2651269733905792,
    0.013432156294584274,
    -0.2651269733905792,
    0.011339654214680195,
    -0.16860662400722504,
    -0.13284800946712494,
    -0.18123671412467957,
    -0.27998867630958557,
    -0.09106622636318207,
    0.2389976531267166,
    -0.22055566310882568,
    -0.23292207717895508,
    0.2651269733905792,
    -0.2733008563518524,
    0.27823224663734436,
    0.21902984380722046,
    0.16104437410831451,
    -0.00869869627058506,
    -0.04470004513859749,
    -0.2651269733905792,
    -0.2651269733905792,
    0.2215021550655365,
    0.16810819506645203,
    -0.07215933501720428,
    0.11897820979356766,
    -0.2651269733905792,
    0.02187194861471653,
    0.2651269733905792,
    0.07930323481559753,
    0.28803279995918274,
    -0.2651269733905792,
    -0.08190357685089111,
    -0.11991220712661743,
    0.2651269733905792,
    -0.2940874695777893,
    -0.18278907239437103,
    0.26704466342926025,
    0.2678068280220032,
    -0.04688768461346626,
    0.17641769349575043,
    0.16982685029506683,
    0.1355336755514145,
    -0.20683389902114868,
    -0.13331487774848938,
    0.10568863153457642,
    0.20291146636009216,
    0.2651269733905792,
    -0.02621767297387123,
    -0.18327569961547852,
    -0.04881216585636139,
    -0.27980589866638184,
    0.15033592283725739,
    0.04186931252479553,
    0.22798112034797668,
    0.0,
    -0.08484788239002228,
    -0.04700780287384987,
    0.0,
    0.10944725573062897,
    0.0,
    0.0,
    0.0,
    -0.19922418892383575,
    0.06938581168651581,
    -0.015673479065299034,
    -0.051074616611003876,
    0.0691523551940918,
    -0.020839137956500053,
    0.09480206668376923,
    -0.14130686223506927,
    0.10554154962301254,
    -0.07550763338804245,
    -0.08809242397546768,
    -0.06827380508184433,
    -0.051222603768110275,
    0.10781156271696091,
    0.13289320468902588,
    0.13421177864074707,
    0.009567448869347572,
    0.09524791687726974,
    -0.1608729064464569,
    -0.010193358175456524,
    0.03955478593707085,
    -0.03871595114469528,
    0.042703937739133835,
    0.08742626011371613,
    0.016692986711859703,
    0.09014842659235,
    -0.11384465545415878,
    -0.06961064040660858,
    0.006994685158133507,
    0.019903486594557762,
    -0.056366223841905594,
    -0.11411487311124802,
    0.2445446252822876,
    0.032729800790548325,
    0.033662859350442886,
    0.031619396060705185,
    0.04052608087658882,
    0.15833793580532074,
    0.06626592576503754,
    0.18310675024986267,
    -0.02204899676144123,
    0.015167385339736938,
    -0.1599937379360199,
    -0.09498018771409988,
    0.06897518783807755,
    0.02108064852654934,
    -0.022464698180556297,
    0.07044661045074463,
    -0.024434465914964676,
    0.1866081953048706,
    -0.07537852972745895,
    0.06848648190498352,
    -0.13931575417518616,
    -0.03736613318324089,
    -0.13642790913581848,
    0.016069289296865463,
    -0.15845276415348053,
    0.053372181951999664,
    -0.1440158635377884,
    -0.026324652135372162,
    -0.12454055994749069,
    0.06748374551534653,
    -0.04809768497943878,
    0.023574214428663254,
    -0.015418791212141514,
    -0.13555997610092163,
    -0.08154266327619553,
    -0.1281915158033371,
    0.05576576665043831,
    -0.0006649027927778661,
    -0.040314603596925735,
    0.03648130223155022,
    0.06383439898490906,
    -0.019245943054556847,
    0.06646708399057388,
    0.052527088671922684,
    -0.05096365138888359,
    0.06853032112121582,
    -0.0426882840692997,
    -0.07573069632053375,
    0.19913625717163086,
    -0.03227114677429199,
    -0.1535322219133377,
    0.025455493479967117,
    -0.001904454082250595,
    0.05396834760904312,
    -0.14918136596679688,
    0.14189308881759644,
    0.03956849128007889,
    0.006743865553289652,
    0.10720884799957275,
    -0.0868641585111618,
    -0.15972046554088593,
    0.030575495213270187,
    -0.011655614711344242,
    0.0431317463517189,
    -0.05522885546088219,
    0.009603187441825867,
    0.2964179217815399,
    -0.09845352172851562,
    -0.2240450233221054,
    0.12955181300640106,
    0.060916781425476074,
    -0.09567012637853622,
    0.03821273893117905,
    -0.07009579986333847,
    -0.255304217338562,
    -0.11483290046453476,
    -0.06359395384788513,
    -0.027722584083676338,
    0.07829565554857254,
    0.11330736428499222,
    0.017880575731396675,
    0.0337192565202713,
    -0.14832733571529388,
    0.015506870113313198,
    0.011356474831700325,
    -0.04740658029913902,
    0.011250755749642849,
    0.030215520411729813,
    0.06766505539417267,
    0.12234722822904587,
    -0.1057676449418068,
    -0.25871920585632324,
    -0.06599132716655731,
    -0.0805024579167366,
    -0.14676526188850403,
    0.07753551006317139,
    0.08103882521390915,
    -0.11524751782417297,
    -0.06297847628593445,
    0.13201455771923065,
    -0.07203499227762222,
    -0.07312025129795074,
    -0.11046240478754044,
    -0.03821360692381859,
    0.12627844512462616,
    0.11848091334104538,
    -0.10637692362070084,
    -0.1914118081331253,
    0.10772068798542023,
    -0.0557388961315155,
    -0.07720736414194107,
    0.11284198611974716,
    -0.08779176324605942,
    -0.17048852145671844,
    0.06173693761229515,
    -0.11711949110031128,
    -0.07658717781305313,
    -0.00031118534388951957,
    0.1116940900683403,
    0.21063385903835297,
    -0.023022485896945,
    0.06673108041286469,
    0.03626273199915886,
    0.047033943235874176,
    -0.15867963433265686,
    -0.14734451472759247,
    0.08419617265462875,
    -0.011844325810670853,
    0.13932663202285767,
    -0.04247412458062172,
    -0.11435618251562119,
    -0.003929195459932089,
    0.062489792704582214,
    0.07132484018802643,
    -0.13021180033683777,
    0.08624311536550522,
    0.13584685325622559,
    -0.27823224663734436,
    0.07367797940969467,
    -0.11392945796251297,
    -0.03393546864390373,
    -0.01923542283475399,
    -0.13455723226070404,
    -0.0016593342879787087,
    -0.10402145236730576,
    0.09728070348501205,
    -0.03150393068790436,
    -0.12789615988731384,
    0.03442385792732239,
    -0.23194503784179688,
    -0.03137936443090439,
    -0.048929717391729355,
    -0.16909167170524597,
    0.05940178409218788,
    0.1331697255373001,
    -0.02621155045926571,
    -0.018648743629455566,
    -0.045474015176296234,
    0.08030872792005539,
    -0.07203378528356552,
    -0.08716636151075363,
    0.18010450899600983,
    0.07347485423088074,
    -0.08733844012022018,
    -0.2726917564868927,
    0.0008743716753087938,
    -0.007590439170598984,
    0.07475637644529343,
    0.11032354086637497,
    0.15026767551898956,
    -0.01537681557238102,
    0.05018940195441246,
    0.1288250982761383,
    0.03335645794868469,
    0.1174900084733963,
    0.18560604751110077,
    0.13824576139450073,
    -0.14116628468036652,
    0.04482394456863403,
    -0.025617126375436783,
    -0.03964276984333992,
    0.07895723730325699,
    0.09034588187932968,
    0.07338492572307587,
    0.133241206407547,
    -0.013954931870102882,
    -0.03126433119177818,
    0.01459979172796011,
    -0.06993477791547775,
    0.009017412550747395,
    0.04197393357753754,
    -0.16466723382472992,
    0.1924256533384323,
    -0.10338330268859863,
    0.07741023600101471,
    0.028886942192912102,
    -0.02506796084344387,
    -0.17042213678359985,
    -0.00661034882068634,
    0.06612516939640045,
    -0.16529013216495514,
    0.0146050825715065,
    -0.07360243797302246,
    -0.059335917234420776,
    0.023388277739286423,
    -0.08054816722869873,
    -0.030885154381394386,
    0.0718526542186737,
    0.05850254371762276,
    -0.12245714664459229,
    -0.15225715935230255,
    0.06316200643777847,
    -0.06378225237131119,
    0.121449775993824,
    0.0008052574703469872,
    0.1301928609609604,
    0.1566305011510849,
    -0.0377669557929039,
    -0.0709461197257042,
    0.0684112012386322,
    0.13352562487125397,
    -0.14645428955554962,
    0.15433941781520844,
    -0.06136126443743706,
    -0.15326978266239166,
    0.20051023364067078,
    -0.02410508133471012,
    -0.08295271545648575,
    0.2554089426994324,
    -0.18007135391235352,
    -0.05694032460451126,
    0.08975798636674881,
    -0.026667991653084755,
    -0.1400241106748581,
    -0.14368107914924622,
    0.2651269733905792,
    -0.11107738316059113,
    0.07928622514009476,
    0.06305039674043655,
    -0.04596366360783577,
    -0.1324126273393631,
    -0.007177999708801508,
    -0.02888260781764984,
    0.1951875388622284,
    0.005218681879341602,
    -0.09003794938325882,
    -0.10918201506137848,
    0.07688494026660919,
    0.09190552681684494,
    0.08275624364614487,
    0.18156559765338898,
    0.0723588690161705,
    0.10601576417684555,
    0.031302884221076965,
    -0.053463250398635864,
    0.04969048127532005,
    0.049967825412750244,
    0.09969489276409149,
    0.20439313352108002,
    -0.26226115226745605,
    -0.12288440018892288,
    0.07964655011892319,
    0.1073613092303276,
    0.14827314019203186,
    -0.07009623199701309,
    0.08136604726314545,
    0.00954244565218687,
    -0.07427407056093216,
    0.21409550309181213,
    0.053114645183086395,
    -0.0013999108923599124,
    -0.028012895956635475,
    0.028955349698662758,
    -0.12054403871297836,
    -0.16037403047084808,
    0.014366373419761658,
    -0.10296177864074707,
    0.03863420709967613,
    0.06788872927427292,
    0.06325933337211609,
    -0.061091210693120956,
    0.10050090402364731,
    -0.22825078666210175,
    0.11595515161752701,
    -0.09302777051925659,
    0.0785142183303833,
    0.01822899654507637,
    -0.1318204253911972,
    -0.04967048391699791,
    -0.015674052760004997,
    -0.20478351414203644,
    -0.03011374920606613,
    -0.1693495362997055,
    -0.031023336574435234,
    0.037402838468551636,
    -0.07681106775999069,
    -0.07203061878681183,
    5.7459037634544075e-05,
    0.05923164635896683,
    0.014981706626713276,
    -0.09939371049404144,
    -0.1433955729007721,
    0.06904498487710953,
    0.07393257319927216,
    -0.07273296266794205,
    0.04398877173662186,
    -0.13637807965278625,
    -0.07590927183628082,
    -0.015232163481414318,
    -0.12458325922489166,
    -0.1204979419708252,
    -0.07360678166151047,
    -0.04291416332125664,
    0.06302539259195328,
    0.15100331604480743,
    0.014070048928260803,
    0.08122120797634125,
    -0.09809963405132294,
    -0.008260149508714676,
    0.021900879219174385,
    -0.057073015719652176,
    0.0957464873790741,
    0.05139609053730965,
    0.04242705926299095,
    0.10371647775173187,
    -0.1869981288909912,
    0.0783776268362999,
    -0.04690781608223915,
    0.03960265591740608,
    0.1227588877081871,
    0.16764308512210846,
    0.0696544274687767,
    0.14670731127262115,
    -0.12100545316934586,
    0.014861593954265118,
    -0.08028962463140488,
    -0.05529613047838211,
    -0.08707365393638611,
    -0.06865248084068298,
    -0.06697367876768112,
    0.00195214431732893,
    -0.11285065859556198,
    0.045529063791036606,
    0.1291189044713974,
    -0.18902963399887085,
    -0.024689678102731705,
    -0.06454487144947052,
    0.06893080472946167,
    0.1357489824295044,
    0.04676901176571846,
    0.09765774756669998,
    -0.19080576300621033,
    -0.08844134956598282,
    0.004939998034387827,
    -0.011104236356914043,
    0.00012390062329359353,
    0.18452532589435577,
    -0.03134443983435631,
    -0.08770059794187546,
    -0.033877164125442505,
    0.04635832458734512,
    -0.23826740682125092,
    0.023084277287125587,
    -0.07786523550748825,
    0.007864393293857574,
    0.054818831384181976,
    -0.05453241989016533,
    0.10180381685495377,
    -0.17012928426265717,
    -0.0786110907793045,
    -0.10216454416513443,
    0.029856359586119652,
    -0.053035397082567215,
    0.03380817174911499,
    0.031620606780052185,
    -0.17305722832679749,
    -0.0014904300915077329,
    0.11897711455821991,
    -0.0031998385675251484,
    0.003950411919504404,
    -0.14210687577724457,
    0.05542924627661705,
    0.2651269733905792,
    -0.14159069955348969,
    -0.0076485611498355865,
    -0.055633313953876495,
    0.01701507717370987,
    0.09077714383602142,
    -0.012002803385257721,
    0.10835186392068863,
    -0.05942840501666069,
    0.07603278756141663,
    -0.14081861078739166,
    0.06922647356987,
    -0.04217740520834923,
    -0.016562558710575104,
    -0.03772599622607231,
    0.06587954610586166,
    0.0950038731098175,
    0.022558225318789482,
    -0.000992341316305101,
    0.0067448741756379604,
    -0.038909416645765305,
    0.1467466652393341,
    -0.093612439930439,
    -0.018636459484696388,
    -0.23913879692554474,
    -0.16353397071361542,
    0.06514117866754532,
    0.04767211526632309,
    0.07500964403152466,
    -0.05691152811050415,
    0.26704466342926025,
    -0.14526139199733734,
    -0.16813483834266663,
    0.11782431602478027,
    0.08994065225124359,
    0.21793141961097717,
    -0.020248839631676674,
    0.20794279873371124,
    0.04598817974328995,
    -0.015161469578742981,
    0.11705771833658218,
    0.14341525733470917,
    -0.09612256288528442,
    0.23186567425727844,
    -0.052386943250894547,
    0.07352554053068161,
    0.09689739346504211,
    0.0051891375333070755,
    -0.12749966979026794,
    -0.025401217862963676,
    0.13508222997188568,
    -0.09400564432144165,
    0.11180847883224487,
    -0.2466401606798172,
    0.05175435170531273,
    0.18842868506908417,
    -0.013406087644398212,
    -0.11017616093158722,
    -0.08429654687643051,
    -0.24618668854236603,
    -0.01010199822485447,
    0.055413395166397095,
    0.14658726751804352,
    0.1549387127161026,
    -0.24161076545715332,
    0.1815991997718811,
    0.020956914871931076,
    -0.048728667199611664,
    0.13777175545692444,
    -0.07890788465738297,
    -0.12884512543678284,
    -0.09447208046913147,
    -0.1307878941297531,
    0.1448805183172226,
    0.05678597837686539,
    0.07989532500505447,
    -0.027958698570728302,
    0.012010779231786728,
    0.023951632902026176,
    -0.04398781433701515,
    -0.10890853404998779,
    -0.022974593564867973,
    -0.01202312484383583,
    0.10865089297294617,
    0.012454081326723099,
    0.025031402707099915,
    0.07313942909240723,
    0.01133591029793024,
    -0.03505510464310646,
    -0.06913770735263824,
    0.07281289994716644,
    -0.13620556890964508,
    -0.13167855143547058,
    0.015535076148808002,
    0.08507408946752548,
    0.014322387985885143,
    0.03202483057975769,
    0.10080478340387344,
    0.005554739385843277,
    0.037830743938684464,
    0.16622930765151978,
    0.02219007909297943,
    0.014271574094891548,
    -0.06581252068281174,
    -0.0783078745007515,
    -0.0958319827914238,
    -0.20128393173217773,
    -0.06268751621246338,
    -0.21385839581489563,
    0.03756682574748993,
    -0.2027144432067871,
    -0.12289819866418839,
    -0.22031839191913605,
    -0.12439728528261185,
    -0.15496598184108734,
    -0.07204204052686691,
    -0.041290637105703354,
    0.16568413376808167,
    0.06093255802989006,
    -0.1683720350265503,
    0.023398451507091522,
    -0.1228015348315239,
    -0.10313624143600464,
    -0.12110715359449387,
    -0.10202262550592422,
    -0.020016539841890335,
    -0.1009816899895668,
    0.013783503323793411,
    -0.06660961359739304,
    0.00806671753525734,
    0.1727721393108368,
    -0.182695209980011,
    -0.1588122695684433,
    0.049418795853853226,
    0.1490817815065384,
    0.07900502532720566,
    0.17441190779209137,
    0.18687807023525238,
    0.020537203177809715,
    -0.062084756791591644,
    0.06568200141191483,
    0.13808904588222504,
    0.03566577658057213,
    -0.07783594727516174,
    0.048107247799634933,
    0.22926396131515503,
    -0.09520374983549118,
    0.14800983667373657,
    0.0922016128897667,
    -0.008489175699651241,
    -0.11561346799135208,
    -0.0009471569210290909,
    0.025827497243881226,
    -0.03345375880599022,
    0.017850838601589203,
    0.035059016197919846,
    0.10162824392318726,
    -0.05397903919219971,
    -0.020148232579231262,
    -0.05823999270796776,
    0.03189112991094589,
    0.18122945725917816,
    -0.18334835767745972,
    -0.11511945724487305,
    0.010528595186769962,
    0.045055143535137177,
    -0.00028961311909370124,
    0.0791507437825203,
    -0.003942581359297037,
    0.013857598416507244,
    0.12188208103179932,
    -0.033969201147556305,
    0.08898860961198807,
    0.01684769243001938,
    0.13741222023963928,
    0.010785841383039951,
    0.1191684752702713,
    0.1915566325187683,
    -0.031280647963285446,
    -0.10594876855611801,
    -0.03081744909286499,
    0.0008936793892644346,
    -0.16538399457931519,
    -0.056792277842760086,
    -0.061019014567136765,
    -0.038693804293870926,
    -0.0013865955406799912,
    -0.015864891931414604,
    -0.009881432168185711,
    -0.01809157431125641,
    -0.04491306468844414,
    0.2124134600162506,
    0.02902917191386223,
    -0.0013090489665046334,
    -0.1305827647447586,
    0.13863009214401245,
    0.10884439200162888,
    -0.062853142619133,
    -0.006039508618414402,
    -0.14409960806369781,
    -0.0877128541469574,
    -0.1263820379972458,
    0.02652280405163765,
    0.009914631955325603,
    -0.0716787576675415,
    -0.0791611596941948,
    -0.002780757611617446,
    0.2584550380706787,
    -0.1269475817680359,
    -0.24358975887298584,
    0.06096469983458519,
    -0.01339692808687687,
    -0.2262279987335205,
    0.121331587433815,
    -0.1426026076078415,
    -0.0235391054302454,
    0.05920123681426048,
    0.001278358860872686,
    0.00730156758800149,
    0.1540307104587555,
    0.0018975269049406052,
    0.08366002887487411,
    0.04389990493655205,
    -0.15657280385494232,
    -0.10570523142814636,
    0.10195013135671616,
    0.09276869148015976,
    0.13439258933067322,
    0.06491118669509888,
    -0.06758397817611694,
    0.14837849140167236,
    -0.007421267218887806,
    -0.010964768007397652,
    -0.13439492881298065,
    0.1273360699415207,
    0.07800183445215225,
    0.13442014157772064,
    0.05108918622136116,
    -0.12294923514127731,
    0.0637986958026886,
    0.07202470302581787,
    0.0862368792295456,
    0.0818265825510025,
    0.024323878809809685,
    -0.11163647472858429,
    0.2651269733905792,
    0.05249151214957237,
    -0.0441986545920372,
    -0.0630032867193222,
    -0.00490533234551549,
    0.05491921305656433,
    0.051264554262161255,
    -0.11512425541877747,
    0.04144245758652687,
    0.06114094331860542,
    0.23149122297763824,
    0.12266391515731812,
    -0.0486014224588871,
    -0.08373527973890305,
    -0.16414324939250946,
    0.0003190751012880355,
    0.05176309868693352,
    -0.0018473556265234947,
    0.041800033301115036,
    0.03380497172474861,
    0.19263462722301483,
    0.06829670816659927,
    -0.07641323655843735,
    0.01797701045870781,
    -0.22609513998031616,
    0.03770151734352112,
    -0.002636360004544258,
    0.0038735480047762394,
    0.07345111668109894,
    -0.20638614892959595,
    -0.05739445239305496,
    -0.09770628809928894,
    0.06503667682409286,
    -0.08507098257541656,
    -0.08469559252262115,
    -0.16230201721191406,
    0.16601085662841797,
    0.005719513166695833,
    -0.02834019437432289,
    0.09648226946592331,
    0.09202640503644943,
    0.004269727505743504,
    0.08682596683502197,
    0.03491365164518356,
    0.0313408300280571,
    0.027414007112383842,
    0.024755895137786865,
    0.054197002202272415,
    0.08848939836025238,
    0.06650590151548386,
    -0.03578111156821251,
    0.13714325428009033,
    -0.25792571902275085,
    -0.0682838037610054,
    -0.08716946095228195,
    -0.0782158374786377,
    0.02036062441766262,
    -0.11206497997045517,
    0.10798601061105728,
    0.10363167524337769,
    0.1376110166311264,
    0.03407711908221245,
    -0.09332970529794693,
    0.03297223523259163,
    0.11872196197509766,
    0.007220584433525801,
    0.2006266862154007,
    0.046698808670043945,
    -0.010468862019479275,
    0.013283525593578815,
    -0.12371045351028442,
    0.11999857425689697,
    0.2398497462272644,
    0.05123336240649223,
    -0.06315173953771591,
    0.18103687465190887,
    -0.025364462286233902,
    0.10689356178045273,
    0.08980339020490646,
    -0.1844593733549118,
    -0.09030496329069138,
    0.08039707690477371,
    -0.11856815963983536,
    0.02941695973277092,
    -0.11806722730398178,
    0.1443650722503662,
    -0.18539971113204956,
    0.08193559944629669,
    0.04740465059876442,
    -0.07439900189638138,
    0.09820996969938278,
    0.04510314762592316,
    0.1452760249376297,
    -0.25457826256752014,
    -0.10333281755447388,
    0.07712434977293015,
    -0.06523512303829193,
    0.16379669308662415,
    -0.044741105288267136,
    -0.08433019369840622,
    0.03189089521765709,
    0.12433542311191559,
    -0.1566254198551178,
    -0.025997580960392952,
    0.04044186696410179,
    -0.01068468950688839,
    0.13381901383399963,
    -0.12207122892141342,
    -0.05523356422781944,
    -0.04700545594096184,
    0.04394589364528656,
    0.00504499115049839,
    -0.038710422813892365,
    0.0008601645240560174,
    -0.07052991539239883,
    -0.1722843497991562,
    -0.0926230177283287,
    0.006955644581466913,
    0.09306942671537399,
    -0.0793619304895401,
    -0.29394638538360596,
    0.1294664442539215,
    -0.09291382879018784,
    -0.025264117866754532,
    -0.004845448769629002,
    0.048942457884550095,
    0.1911458671092987,
    0.07274075597524643,
    -0.035612840205430984,
    0.027377692982554436,
    0.011848191730678082,
    0.11021920293569565,
    -0.04045509174466133,
    -0.10961587727069855,
    0.04847745597362518,
    0.06653701514005661,
    0.08511421084403992,
    0.0010223925346508622,
    -0.11575563997030258,
    0.009164001792669296,
    -0.016897765919566154,
    0.11468525975942612,
    -0.08307385444641113,
    -0.03852369263768196,
    -0.0652306079864502,
    0.050121136009693146,
    -0.12627218663692474,
    -0.06049330532550812,
    0.005094332620501518,
    -0.18847328424453735,
    -0.15532298386096954,
    -0.009404626674950123,
    0.05587344244122505,
    0.215111643075943,
    -0.10505980253219604,
    -0.13033980131149292,
    0.015130829997360706,
    0.21324773132801056,
    -0.1318269670009613,
    -0.13857339322566986,
    0.07434646040201187,
    -0.12289227545261383,
    0.21511462330818176,
    -0.07013871520757675,
    0.009110393933951855,
    -0.01203552633523941,
    -0.06305908411741257,
    -0.0931825265288353,
    0.04008343815803528,
    -0.1344115138053894,
    -0.020117392763495445,
    -0.0766223594546318,
    0.06761358678340912,
    -0.07837953418493271,
    -0.01842045597732067,
    0.14234067499637604,
    0.19338196516036987,
    -0.07358814030885696,
    0.0669049322605133,
    0.08161651343107224,
    0.04398097097873688,
    0.22142687439918518,
    0.17869409918785095,
    0.09833411127328873,
    0.029264409095048904,
    -0.006426261272281408,
    -0.18562331795692444,
    -0.036522023379802704,
    0.011565771885216236,
    0.11499843746423721,
    -0.08453849703073502,
    -0.11255566030740738,
    0.07707975059747696,
    -0.10676302760839462,
    0.08216654509305954,
    -0.12450094521045685,
    0.008138264529407024,
    0.10699007660150528,
    -0.01949572004377842,
    -0.028243279084563255,
    -0.26474061608314514,
    0.024764055386185646,
    -0.11305343359708786,
    -0.007237429730594158,
    0.08520150184631348,
    0.1261117309331894,
    0.013075102120637894,
    0.1029479056596756,
    -0.001988039817661047,
    -0.05460191145539284,
    -0.04612191393971443,
    -0.05778134986758232,
    0.07317382842302322,
    0.07098750025033951,
    -0.04909976199269295,
    -0.061608828604221344,
    -0.028070954605937004,
    -0.18115203082561493,
    -0.02804837003350258,
    0.029910344630479813,
    -0.10731599479913712,
    0.12928734719753265,
    -0.18731726706027985,
    -0.07116582989692688,
    0.04885420203208923,
    0.21754305064678192,
    -0.02642892859876156,
    -0.14497488737106323,
    -0.012474458664655685,
    -0.0011849203146994114,
    -0.007334447931498289,
    0.06848292797803879,
    0.07051045447587967,
    -0.053600288927555084,
    -0.11769449710845947,
    -0.07688166201114655,
    -0.007243534084409475,
    0.016475435346364975,
    0.10809377580881119,
    0.15280410647392273,
    -0.002311248332262039,
    0.025943581014871597,
    0.07267240434885025,
    0.26756352186203003,
    -0.10569832473993301,
    0.0520271435379982,
    -0.19175031781196594,
    -0.123851478099823,
    0.12363374978303909,
    -0.04821836203336716,
    -0.10474623739719391,
    -0.02395574562251568,
    -0.13958340883255005,
    -0.021270284429192543,
    -0.0682210847735405,
    -0.030018184334039688,
    -0.19860096275806427,
    -0.15962477028369904,
    -0.09223698824644089,
    0.053391389548778534,
    0.15070392191410065,
    0.04269210249185562,
    0.2279612123966217,
    -0.10722313821315765,
    0.05975240096449852,
    -0.14941580593585968,
    0.07245425134897232,
    -0.13456448912620544,
    0.027952706441283226,
    0.09813275188207626,
    -0.06106320023536682,
    -0.15060488879680634,
    0.07766453176736832,
    -0.004241518676280975,
    -0.13341540098190308,
    0.021134434267878532,
    -0.09195099771022797,
    -0.10169507563114166,
    -0.12820427119731903,
    0.11662755161523819,
    -0.08255947381258011,
    -0.034821268171072006,
    -0.10348080098628998,
    0.03927193954586983,
    -0.1516570895910263,
    -0.011311695910990238,
    0.17128539085388184,
    0.02672896347939968,
    0.15351064503192902,
    0.06673058122396469,
    0.03235063701868057,
    -0.021400993689894676,
    -0.04763438180088997,
    -0.005617056507617235,
    0.05009911581873894,
    -0.030099565163254738,
    -0.017833899706602097,
    -0.10636565834283829,
    -0.035146038979291916,
    -0.010732037015259266,
    0.00043089594691991806,
    -0.0943755954504013,
    -0.028613517060875893,
    0.036674853414297104,
    -0.0005321365315467119,
    -0.06435905396938324,
    -0.10588910430669785,
    -0.006063208449631929,
    -0.15975941717624664,
    -0.14029692113399506,
    0.04961169511079788,
    0.024857517331838608,
    -0.11112380027770996,
    0.09789647161960602,
    -0.12460508197546005,
    0.10572618991136551,
    0.04369572550058365,
    0.16306720674037933,
    -0.036144670099020004,
    -0.040800515562295914,
    0.006996977608650923,
    -0.24860075116157532,
    -0.17723745107650757,
    0.14657250046730042,
    0.15530048310756683,
    0.14017198979854584,
    -0.22571487724781036,
    -0.06364736706018448,
    -0.11796635389328003,
    -0.08090196549892426,
    0.037800244987010956,
    0.10166026651859283,
    -0.22324423491954803,
    -0.09448548406362534,
    -0.19583845138549805,
    0.0176768209785223,
    -0.05602201819419861,
    0.0230267271399498,
    0.09208863228559494,
    0.20142441987991333,
    -0.07327587902545929,
    -0.11345010995864868,
    -0.030996697023510933,
    -0.14776943624019623,
    -0.0924762487411499,
    0.03934111446142197,
    -0.008491143584251404,
    -0.04888574406504631,
    0.22816979885101318,
    -0.029095137491822243,
    -0.14812913537025452,
    0.10827162116765976,
    -0.051937784999608994,
    0.055294740945100784,
    -0.08569934219121933,
    0.03313027322292328,
    0.12780730426311493,
    0.11045674234628677,
    -0.034954775124788284,
    -0.10251633077859879,
    0.15924137830734253,
    0.09651080518960953,
    -0.08580805361270905,
    0.01569654606282711,
    -0.20001180469989777,
    -0.007710988167673349,
    0.006419702898710966,
    0.028773074969649315,
    0.026171663776040077,
    -0.06683477759361267,
    0.20532269775867462,
    0.10891454666852951,
    -0.12043142318725586,
    -0.13177216053009033,
    -0.09784776717424393,
    0.03742707520723343,
    -0.0013393275439739227,
    0.02526930347084999,
    -0.05336175486445427,
    -0.051454413682222366,
    -0.013506606221199036,
    0.1679798662662506,
    -0.08531685173511505,
    0.04855670407414436,
    -0.03119783103466034,
    -0.11868941783905029,
    -0.0333443209528923,
    0.044138260185718536,
    -0.07568057626485825,
    0.24769604206085205,
    -0.11814208328723907,
    0.05980255827307701,
    -0.20328441262245178,
    -0.15742376446723938,
    -0.04531070217490196,
    -0.04705255851149559,
    0.010423560626804829,
    -0.08867091685533524,
    0.06449011713266373,
    0.12281755357980728,
    0.10493696480989456,
    0.0028142232913523912,
    0.09531951695680618,
    -0.011451027356088161,
    0.11645909398794174,
    -0.030951043590903282,
    -0.10541080683469772,
    -0.008660558611154556,
    -0.042600393295288086,
    -0.03778018429875374,
    0.14923715591430664,
    0.07793473452329636,
    -0.07408864051103592,
    0.1446051448583603,
    0.03754748776555061,
    0.11487670242786407,
    0.027336684986948967,
    0.0822923481464386,
    0.0568428635597229,
    -0.10928560793399811,
    -0.1008739098906517,
    -0.037121936678886414,
    0.14601925015449524,
    -0.13204514980316162,
    -0.08640766143798828,
    -0.018317846581339836,
    0.05499345809221268,
    -0.10197824984788895,
    -0.01935627870261669,
    0.07494509965181351,
    0.15406644344329834,
    -0.02907293476164341,
    0.12310963869094849,
    0.05226995423436165,
    -0.09190758317708969,
    0.02585313655436039,
    0.079597607254982,
    0.04261719062924385,
    0.04803503304719925,
    0.09583868086338043,
    0.09836673736572266,
    0.27998867630958557,
    -0.09761308878660202,
    -0.056690409779548645,
    -0.06848137825727463,
    -0.0018885447643697262,
    -0.011511953547596931,
    -0.07194825261831284,
    0.1137697696685791,
    0.01822938211262226,
    -0.09623197466135025,
    -0.05052272230386734,
    -0.03509774059057236,
    -0.08438291400671005,
    -0.18323557078838348,
    -0.09849938005208969,
    0.017316916957497597,
    -0.12298583984375,
    -0.06631989777088165,
    -0.20633147656917572,
    0.006667598616331816,
    -0.04743043705821037,
    -0.17841875553131104,
    0.1492781937122345,
    -0.17980444431304932,
    0.022633593529462814,
    0.1068369522690773,
    -0.02908150851726532,
    -0.01172714401036501,
    0.10303246229887009,
    0.16229337453842163,
    0.006999005563557148,
    -0.1323775351047516,
    0.04277413338422775,
    0.029787380248308182,
    0.09266069531440735,
    0.09970774501562119,
    -0.16451939940452576,
    0.0058473520912230015,
    0.20369914174079895,
    -0.1309584230184555,
    -0.16135723888874054,
    -0.07749965041875839,
    0.09147481620311737,
    0.09417461603879929,
    -0.06577207148075104,
    -0.0384807251393795,
    0.1180882602930069,
    -0.14343754947185516,
    0.13682112097740173,
    0.04357641562819481,
    -0.1275682896375656,
    -0.07215898483991623,
    -0.16345906257629395,
    0.009368150494992733,
    0.12718132138252258,
    -0.09140846133232117,
    0.14623719453811646,
    -0.046575918793678284,
    -0.11336026340723038,
    -0.09777682274580002,
    0.07853743433952332,
    0.11810517311096191,
    -0.08778684586286545,
    0.04147068411111832,
    0.11528909206390381,
    -0.0666026622056961,
    0.009751482866704464,
    -0.2710092067718506,
    0.07197871804237366,
    -0.0025262595154345036,
    -0.1577989161014557,
    0.048086702823638916,
    -0.01905885897576809,
    -0.14311616122722626,
    0.007811517454683781,
    -0.1582798957824707,
    -0.06354392319917679,
    -0.033183254301548004,
    -0.033199142664670944,
    -0.12008654326200485,
    -0.19526734948158264,
    -0.003456653794273734,
    0.10735153406858444,
    0.06998302787542343,
    0.004265424329787493,
    0.007733592297881842,
    0.131747767329216,
    0.06554679572582245,
    -0.03393643721938133,
    -0.051742494106292725,
    0.04085564240813255,
    -0.08138018101453781,
    0.011827110312879086,
    0.09866913408041,
    0.046208981424570084,
    0.052090834826231,
    0.006344290915876627,
    -0.1168082132935524,
    -0.046205971390008926,
    -0.019759392365813255,
    0.0023362606298178434,
    -0.19012971222400665,
    0.03394802287220955,
    0.2360651046037674,
    -0.05397685989737511,
    -0.00598919065669179,
    -0.13492579758167267,
    0.11894860118627548,
    -0.09577710181474686,
    -0.13923725485801697,
    0.17807605862617493,
    -0.04036087915301323,
    0.050224125385284424,
    -0.12384843826293945,
    -0.24542748928070068,
    -0.03275815024971962,
    0.018573490902781487,
    -0.09550843387842178,
    -0.13957756757736206,
    0.025549793615937233,
    0.008831332437694073,
    0.11650893837213516,
    -0.1164419874548912,
    0.09359283745288849,
    -0.03227740526199341,
    0.0886530876159668,
    0.10719756036996841,
    0.026306962594389915,
    -0.08779653161764145,
    -0.13654139637947083,
    -0.012860581278800964,
    0.08936560153961182,
    0.031057870015501976,
    -0.09267091751098633,
    0.05129587650299072,
    -0.1352768987417221,
    -0.03096979670226574,
    0.009577293880283833,
    0.19263210892677307,
    0.08372559398412704,
    0.14544354379177094,
    0.004695720970630646,
    -0.10910578817129135,
    0.08960141241550446,
    -0.05254320427775383,
    0.19742347300052643,
    -0.17068161070346832,
    -0.023913977667689323,
    -0.14878211915493011,
    -0.02012588083744049,
    0.05933081731200218,
    0.1161852702498436,
    -0.11941007524728775,
    0.1522710919380188,
    -0.11232224851846695,
    -0.04807024821639061,
    0.049837224185466766,
    0.10650642961263657,
    -0.0016987549606710672,
    -0.02278173342347145,
    0.03841310739517212,
    -0.04769973084330559,
    -0.028924835845828056,
    -0.10352396219968796,
    -0.031224671751260757,
    0.11060728877782822,
    -0.002619326813146472,
    0.17000606656074524,
    0.263759583234787,
    -0.1687227487564087,
    0.038810040801763535,
    0.07973221689462662,
    -0.04069499298930168,
    -0.117484450340271,
    0.13494320213794708,
    -0.24543516337871552,
    0.03096443973481655,
    -0.048648372292518616,
    -0.19628004729747772,
    0.15232427418231964,
    -0.03715180233120918,
    0.1409565806388855,
    -0.13873140513896942,
    0.19112595915794373,
    0.10382061451673508,
    0.09166976809501648,
    0.0719381794333458,
    0.11096564680337906,
    0.038014139980077744,
    -0.0498589389026165,
    0.12555523216724396,
    0.06657335162162781,
    0.10170109570026398,
    0.18765684962272644,
    0.08721030503511429,
    0.007484309375286102,
    0.13652659952640533,
    0.14666560292243958,
    0.008173961192369461,
    0.044844210147857666,
    0.013135393150150776,
    0.0259245578199625,
    -0.16995356976985931,
    -0.049559976905584335,
    -0.1728425920009613,
    -0.04239211231470108,
    0.11326843500137329,
    -0.1638539880514145,
    -0.012574128806591034,
    0.05652793496847153,
    0.013046526350080967,
    0.08094293624162674,
    -0.031527359038591385,
    0.133929044008255,
    0.058821845799684525,
    0.06974834203720093,
    -0.013611785136163235,
    0.0662575513124466,
    -0.01579402945935726,
    -0.057130973786115646,
    0.150178000330925,
    0.027040917426347733,
    0.15061606466770172,
    -0.04007129743695259,
    -0.11113464087247849,
    -0.01339507382363081,
    -0.03680465370416641,
    0.03859534487128258,
    0.024007681757211685,
    0.05268213152885437,
    0.07327112555503845,
    -0.002828865312039852,
    0.03844333812594414,
    -0.10479392856359482,
    0.0021032297518104315,
    0.05996716767549515,
    0.08426662534475327,
    -0.21739724278450012,
    0.2651269733905792,
    -0.11992626637220383,
    0.1503484696149826,
    -0.15399830043315887,
    -0.05991681292653084,
    -0.04203614220023155,
    0.06480146199464798,
    0.051749520003795624,
    0.05011248216032982,
    -0.03956487402319908,
    0.06098337844014168,
    0.07763051986694336,
    0.02489142119884491,
    -0.12835147976875305,
    -0.09127356857061386,
    0.15478332340717316,
    0.10136774182319641,
    -0.02613530494272709,
    0.0029638020787388086,
    -0.08831919729709625,
    0.01859608292579651,
    -0.03660070151090622,
    -0.10591878741979599,
    -0.039541348814964294,
    -0.024879824370145798,
    -0.0057697962038218975,
    0.10244607925415039,
    -0.14041876792907715,
    -0.11131250113248825,
    0.11109446734189987,
    0.08906207978725433,
    -0.05471094325184822,
    0.02190997451543808,
    0.06441697478294373,
    0.06944617629051208,
    -0.11997104436159134,
    0.2651269733905792,
    0.01988505944609642,
    0.06141797453165054,
    -0.18096745014190674,
    -0.02030331827700138,
    0.012642341665923595,
    0.06553279608488083,
    0.0280937310308218,
    -0.008859376423060894,
    -0.008593722246587276,
    0.07621091604232788,
    0.046200256794691086,
    -0.05486534908413887,
    0.2651269733905792,
    -0.08271680027246475,
    0.06803172081708908,
    0.10644365847110748,
    -0.010803356766700745,
    -0.07423480600118637,
    -0.09676216542720795,
    0.1431213617324829,
    -0.03696874901652336,
    -0.012548843398690224,
    -0.024918757379055023,
    0.09050509333610535,
    0.0409211739897728,
    0.031236089766025543,
    -0.04868817329406738,
    -0.11776144802570343,
    -0.05063486471772194,
    -0.09978961944580078,
    -0.09237022697925568,
    -0.09252061694860458,
    -0.18584029376506805,
    0.10846914350986481,
    0.17568334937095642,
    0.022308748215436935,
    -0.10100062191486359,
    -0.001202256535179913,
    0.09233476966619492,
    0.09807819128036499,
    -0.02134575881063938,
    -0.17492522299289703,
    0.019620444625616074,
    0.10491205751895905,
    0.06995481252670288,
    -0.037488311529159546,
    -0.1185435801744461,
    0.073545902967453,
    -0.07268338650465012,
    -0.03848749026656151,
    -0.027724353596568108,
    -0.03693133220076561,
    0.18919086456298828,
    0.1204717755317688,
    0.058696139603853226,
    0.05012499913573265,
    0.019895171746611595,
    0.12802168726921082,
    -0.08473243564367294,
    -0.12053819000720978,
    0.14357756078243256,
    0.07412251085042953,
    -0.008968591690063477,
    0.09074907004833221,
    0.03176559507846832,
    -0.15123425424098969,
    -0.06586135923862457,
    0.04455997794866562,
    0.12921206653118134,
    -0.14578300714492798,
    -0.057285841554403305,
    -0.07291686534881592,
    0.11221108585596085,
    -0.0036148426588624716,
    -0.06509342044591904,
    -0.15858013927936554,
    0.018527446314692497,
    -0.03890974819660187,
    0.020319141447544098,
    -0.0731121078133583,
    -0.11078602075576782,
    -0.18791402876377106,
    -0.0023014824837446213,
    0.11958082020282745,
    0.021824831143021584,
    0.04521188139915466,
    -0.06685252487659454,
    -0.10481216013431549,
    0.018705302849411964,
    -0.06473050266504288,
    0.10517673939466476,
    0.2651269733905792,
    0.017221489921212196,
    0.16252976655960083,
    -0.1201646476984024,
    0.074961356818676,
    0.05756367743015289,
    -0.14864897727966309,
    -0.0553220696747303,
    -0.04362737387418747,
    -0.2081291228532791,
    0.07718116790056229,
    0.171835258603096,
    -0.08019426465034485,
    0.116245798766613,
    0.079201839864254,
    -0.09629657119512558,
    -0.08675236999988556,
    -0.05339394882321358,
    0.02305353432893753,
    0.18159429728984833,
    -0.04309086874127388,
    0.0660000815987587,
    -0.06663607060909271,
    -0.004566154442727566,
    0.16362057626247406,
    0.03741425648331642,
    0.016343098133802414,
    -0.008081089705228806,
    0.026669085025787354,
    0.037604447454214096,
    0.1190008893609047,
    0.25454986095428467,
    -0.06905674189329147,
    0.203876331448555,
    -0.19530516862869263,
    -0.11596474796533585,
    -0.014889751560986042,
    -0.23274944722652435,
    -0.08891873806715012,
    0.016129419207572937,
    -0.06019854545593262,
    -0.0030077446717768908,
    -0.14264796674251556,
    -0.1762831062078476,
    -0.06840389221906662,
    -0.0673922747373581,
    0.11638414859771729,
    0.07381806522607803,
    -0.03177754580974579,
    0.14270541071891785,
    0.0934227928519249,
    -0.009206719696521759,
    -0.032846733927726746,
    0.052576012909412384,
    -0.11772483587265015,
    -0.20590269565582275,
    0.04552963003516197,
    -0.06677544116973877,
    0.08301926404237747,
    -0.0708611011505127,
    0.21175071597099304,
    0.04076381027698517,
    0.19106464087963104,
    -0.06819853186607361,
    0.12138200551271439,
    -0.032320551574230194,
    0.20852461457252502,
    -0.031432267278432846,
    -0.02582733891904354,
    0.04871054366230965,
    0.07229723781347275,
    0.017760658636689186,
    -0.07343551516532898,
    -0.18955135345458984,
    0.10476762056350708,
    0.07599335163831711,
    0.07705338299274445,
    0.23746941983699799,
    0.06667088717222214,
    -0.049861397594213486,
    0.12719552218914032,
    -0.03141796216368675,
    0.057537779211997986,
    0.15765373408794403,
    -0.055871400982141495,
    -0.02835218980908394,
    0.005259084515273571,
    -0.06367059797048569,
    0.05727061256766319,
    -0.018567852675914764,
    -0.02925970032811165,
    0.14305730164051056,
    -0.09483877569437027,
    -0.18511903285980225,
    0.15365009009838104,
    -0.08630601316690445,
    0.07932116836309433,
    -0.21674492955207825,
    -0.13206996023654938,
    -0.05838627368211746,
    -0.03183484077453613,
    0.007713262923061848,
    0.19420814514160156,
    -0.17929647862911224,
    0.10039568692445755,
    0.11057449132204056,
    0.04159102216362953,
    -0.19040612876415253,
    -0.07042568176984787,
    0.11189456284046173,
    0.2522117793560028,
    0.13054513931274414,
    0.10307934135198593,
    0.026716304942965508,
    -0.06134849414229393,
    0.2066301852464676,
    -0.025255504995584488,
    -0.04510138928890228,
    0.01138321217149496,
    0.019206881523132324,
    0.09607896953821182,
    0.05577768012881279,
    -0.041201334446668625,
    -0.11001028120517731,
    -0.09654104709625244,
    -0.013736625202000141,
    -0.03645261004567146,
    -0.006825833115726709,
    -0.019159119576215744,
    0.022516928613185883,
    0.2522415220737457,
    -0.156962051987648,
    0.04849035292863846,
    -0.1252315640449524,
    0.15145188570022583,
    0.0787075012922287,
    0.0004434321017470211,
    -0.06524235755205154,
    0.11012491583824158,
    0.008970091119408607,
    0.1575872302055359,
    0.031050579622387886,
    0.013527343049645424,
    0.019910892471671104,
    0.11158237606287003,
    -0.19636070728302002,
    0.119404137134552,
    -0.04321059212088585,
    -0.041559770703315735,
    0.03056878224015236,
    -0.037779971957206726,
    -0.13417920470237732,
    0.15188096463680267,
    -0.06433267891407013,
    -0.0002716688613872975,
    0.050330955535173416,
    -0.014101393520832062,
    -0.0871826708316803,
    0.06843625754117966,
    -0.13073617219924927,
    0.1825105994939804,
    -0.23504389822483063,
    0.0455903634428978,
    -0.0037125719245523214,
    0.11056214570999146,
    0.24422650039196014,
    0.04398786649107933,
    0.018856434151530266,
    0.10883970558643341,
    -0.07033432275056839,
    0.08062879741191864,
    -0.009899609722197056,
    0.054247498512268066,
    0.023597346618771553,
    0.15631943941116333,
    0.05124349147081375,
    0.08649756759405136,
    0.021173827350139618,
    -0.10587257891893387,
    0.18822599947452545,
    0.07520337402820587,
    -0.028168177232146263,
    0.05832405015826225,
    -0.11148621886968613,
    0.08344228565692902,
    -0.01711121015250683,
    0.16268785297870636,
    0.07665819674730301,
    -0.10291082412004471,
    0.0904749408364296,
    0.0047604176215827465,
    -0.17478688061237335,
    -0.07433845102787018,
    -0.10401751101016998,
    -0.013925158418715,
    0.05546821281313896,
    0.10461407154798508,
    -0.11426381021738052,
    -0.05104757100343704,
    0.014988655224442482,
    0.15047483146190643,
    0.039220329374074936,
    -0.21443264186382294,
    -0.0620734803378582,
    -0.03615967556834221,
    -0.11057179421186447,
    -0.0609465166926384,
    0.03234956040978432,
    0.0019324393942952156,
    -0.06567981839179993,
    0.019048163667321205,
    -0.01898648962378502,
    0.20782828330993652,
    -0.02939988486468792,
    -0.15301238000392914,
    -0.042531680315732956,
    -0.018987907096743584,
    0.07122842967510223,
    0.0015987897058948874,
    0.06017053872346878,
    -0.009467053227126598,
    -0.15833713114261627,
    -0.04586096107959747,
    0.09033876657485962,
    0.015561710111796856,
    -0.1842460036277771,
    0.042304713279008865,
    0.02750488929450512,
    -0.049839746206998825,
    -0.08339162915945053,
    -0.08070282638072968,
    0.08665769547224045,
    0.0058744363486766815,
    0.07862544804811478,
    0.06597179174423218,
    -0.1616779863834381,
    -0.07396610826253891,
    0.1589224487543106,
    -0.006088010501116514,
    -0.16570650041103363,
    0.06979014724493027,
    -0.16201762855052948,
    -0.002695150440558791,
    0.14339777827262878,
    0.03811836615204811,
    -0.0016253296053037047,
    -0.12325350195169449,
    -0.03501031920313835,
    -0.03204091265797615,
    -0.031706519424915314,
    0.1261805146932602,
    -0.028340870514512062,
    0.18912367522716522,
    0.1501743644475937,
    0.022771300747990608,
    0.1520153135061264,
    0.11016519367694855,
    0.03039265237748623,
    -0.0020309349056333303,
    0.1190902590751648,
    0.059107452630996704,
    -0.05808796361088753,
    0.17498652637004852,
    0.07189147919416428,
    -0.037119824439287186,
    0.03848176822066307,
    0.13722272217273712,
    0.03939977288246155,
    -0.06981012970209122,
    0.011198103427886963,
    0.12268716841936111,
    -0.05552684888243675,
    -0.03485780954360962,
    0.0714949443936348,
    -0.17140419781208038,
    -0.040962547063827515,
    0.2514055371284485,
    0.10902997851371765,
    0.05122581124305725,
    0.12493845075368881,
    0.13572712242603302,
    -0.0032969973981380463,
    -0.006958285812288523,
    -0.1776852160692215,
    -0.1833931803703308,
    -0.1116144061088562,
    0.21108967065811157,
    0.09118302166461945,
    -0.08936578035354614,
    0.011594865471124649,
    0.06460192054510117,
    0.07757668197154999,
    -0.04987027496099472,
    0.018446950241923332,
    -0.010617397725582123,
    -0.12647941708564758,
    0.1831992119550705,
    -0.10702817887067795,
    0.16071096062660217,
    0.10281099379062653,
    -0.044364750385284424,
    -0.08575411885976791,
    0.051500674337148666,
    -0.07277178019285202,
    0.07695731520652771,
    -0.03647890314459801,
    0.11613736301660538,
    0.1345273107290268,
    -0.1625106930732727,
    0.13602428138256073,
    -0.14942602813243866,
    -0.0029336155857890844,
    -0.08924292773008347,
    0.038025062531232834,
    -0.03457684814929962,
    -0.1284123808145523,
    0.04716211557388306,
    -0.2651269733905792,
    0.07270827889442444,
    0.007912538014352322,
    0.05526255443692207,
    -0.019792944192886353,
    -0.1106814444065094,
    -0.021757103502750397,
    0.12386095523834229,
    0.11699332296848297,
    -0.04841771349310875,
    -0.05539703369140625,
    -0.07807176560163498,
    0.13218818604946136,
    -0.02825532667338848,
    -0.18019866943359375,
    -0.01918133907020092,
    -0.0011494312202557921,
    0.13578656315803528,
    -0.039599474519491196,
    -0.0020627237390726805,
    -0.028893664479255676,
    0.017574893310666084,
    -0.07250526547431946,
    -0.026476969942450523,
    -0.022084619849920273,
    0.05573054030537605,
    -0.22340722382068634,
    0.14581649005413055,
    -0.16549603641033173,
    0.09058040380477905,
    0.029440108686685562,
    -0.03598102182149887,
    -0.05665524676442146,
    0.21427753567695618,
    0.07990653067827225,
    0.10346048325300217,
    0.052799616008996964,
    0.00689901877194643,
    -0.003541928483173251,
    -0.07653454691171646,
    0.08316376805305481,
    0.007585072424262762,
    0.024330876767635345,
    -0.08428367972373962,
    -0.0014014519983902574,
    0.20902523398399353,
    0.013363217003643513,
    0.1281987875699997,
    -0.015023303218185902,
    -0.18470396101474762,
    0.05933154746890068,
    -0.015270200558006763,
    0.21608883142471313,
    -0.13634347915649414,
    -0.15201479196548462,
    -0.058587830513715744,
    -0.2858448922634125,
    -0.0425192154943943,
    -0.02107327990233898,
    0.01107156090438366,
    -0.028740888461470604,
    0.03416524454951286,
    0.043718453496694565,
    0.26976048946380615,
    -0.09784922003746033,
    0.003090139478445053,
    -0.18314282596111298,
    0.024893851950764656,
    -0.10170568525791168,
    -0.008748441934585571,
    -0.05839748680591583,
    -0.028260502964258194,
    -0.0948081910610199,
    0.02689836360514164,
    -0.12465991079807281,
    -0.14712055027484894,
    0.17358063161373138,
    0.1890612691640854,
    0.11667422950267792,
    -0.02934623323380947,
    0.015409762039780617,
    -0.07796801626682281,
    0.239292174577713,
    0.12648905813694,
    0.07331081479787827,
    0.16284173727035522,
    -0.04876578599214554,
    -0.14564009010791779,
    0.05867527797818184,
    -0.10688741505146027,
    -0.02429470792412758,
    0.006587666925042868,
    0.08144445717334747,
    0.08066511154174805,
    0.16847588121891022,
    -0.18033501505851746,
    0.16289155185222626,
    0.000878837367054075,
    -0.24231761693954468,
    -0.025704095140099525,
    -0.024815382435917854,
    0.06814946979284286,
    0.030489429831504822,
    0.07493527233600616,
    0.10376045852899551,
    -0.11522459983825684,
    0.018056975677609444,
    0.09409443289041519,
    0.17193876206874847,
    0.0009469499927945435,
    -0.04236690700054169,
    0.004066879395395517,
    -0.018564678728580475,
    -0.024648545309901237,
    -0.11542868614196777,
    -0.13290129601955414,
    -0.046904996037483215,
    0.031538400799036026,
    -0.09307233989238739,
    -0.18496999144554138,
    -0.0189952589571476,
    -0.08636274933815002,
    -0.13275958597660065,
    0.07039551436901093,
    -0.06102304905653,
    -0.011612948030233383,
    0.061989445239305496,
    0.15262894332408905,
    -0.0034846707712858915,
    0.11241237074136734,
    -0.13482387363910675,
    -0.07279437780380249,
    -0.019738614559173584,
    -0.002529950113967061,
    0.21948622167110443,
    -0.03826893866062164,
    -0.019527411088347435,
    0.029813090339303017,
    -0.061591457575559616,
    -0.17350518703460693,
    0.032980356365442276,
    0.012487980537116528,
    0.028663065284490585,
    -0.0732518658041954,
    -0.07646171003580093,
    -0.06511130183935165,
    -0.16235262155532837,
    -0.1023440733551979,
    -0.20352932810783386,
    -0.010880239307880402,
    0.1609036773443222,
    -0.16293559968471527,
    -0.26328933238983154,
    0.11437605321407318,
    -0.014218822121620178,
    0.10758665949106216,
    0.01602254994213581,
    -0.10963056236505508,
    -0.26704466342926025,
    0.09693463146686554,
    0.06493689119815826,
    0.07485612481832504,
    0.15502795577049255,
    0.12012097984552383,
    -0.01096660178154707,
    -0.007635615300387144,
    -0.06418981403112411,
    -0.013724069111049175,
    0.03067982755601406,
    -0.0538206472992897,
    0.07331492006778717,
    0.021416326984763145,
    -0.11815405637025833,
    -0.1228487491607666,
    -0.07313284277915955,
    0.16136957705020905,
    0.26295432448387146,
    0.08987665921449661,
    -0.08661486208438873,
    -0.010064300149679184,
    -0.0030148224905133247,
    -0.09227447956800461,
    0.08217697590589523,
    -0.00906448345631361,
    0.019213899970054626,
    0.10480749607086182,
    0.07756321877241135,
    0.08374064415693283,
    -0.017280856147408485,
    -0.16303519904613495,
    0.10696288198232651,
    -0.04776839166879654,
    0.01593548245728016,
    -0.03475300595164299,
    0.06533145159482956,
    0.01671297661960125,
    0.15414917469024658,
    0.036573562771081924,
    -0.06693340092897415,
    -0.15053249895572662,
    -0.06271946430206299,
    -0.16389115154743195,
    -0.09269990026950836,
    -0.06540749967098236,
    0.15167318284511566,
    0.023029834032058716,
    0.0232197605073452,
    0.1269887387752533,
    -0.003421482862904668,
    0.10342878848314285,
    -0.08238106220960617,
    0.007785627152770758,
    -0.021776026114821434,
    -0.05516887828707695,
    -0.17074552178382874,
    0.04525647312402725,
    -0.025247760117053986,
    0.13783292472362518,
    -0.044345397502183914,
    0.008224411867558956,
    0.10886281728744507,
    -0.019623247906565666,
    -0.11988558620214462,
    0.019018910825252533,
    -0.008977505378425121,
    -0.012647219002246857,
    -0.009627565741539001,
    -0.11285734176635742,
    -0.002547984942793846,
    0.002663618652150035,
    -0.1292128562927246,
    -0.070938341319561,
    0.0712876170873642,
    0.033961765468120575,
    -0.05510731413960457,
    -0.06759944558143616,
    0.07572323828935623,
    0.026873642578721046,
    -0.19706076383590698,
    0.13362371921539307,
    0.0641806572675705,
    -0.186492457985878,
    -0.02076055109500885,
    -0.2349965125322342,
    -0.16894587874412537,
    -0.04811878874897957,
    0.061032991856336594,
    -0.11295956373214722,
    -0.21301265060901642,
    -0.1542699635028839,
    -0.004370540380477905,
    0.19736173748970032,
    -0.013051055371761322,
    -0.0040208506397902966,
    -0.031288810074329376,
    -0.097300685942173,
    0.18328043818473816,
    0.054716747254133224,
    0.12082348018884659,
    -0.16630558669567108,
    -0.04476214945316315,
    -0.01429126225411892,
    -0.08185785263776779,
    -0.10955045372247696,
    -0.011748000048100948,
    -0.05416138097643852,
    0.11435037106275558,
    -0.11075246334075928,
    0.06685487926006317,
    0.13261429965496063,
    -0.005465820897370577,
    0.11583884805440903,
    -0.11385520547628403,
    -0.02120506390929222,
    0.09998197853565216,
    -0.008080239407718182,
    0.0026601161807775497,
    -0.021992940455675125,
    -0.014785622246563435,
    -0.014015734195709229,
    -0.061433471739292145,
    -0.07180210947990417,
    -0.002523113042116165,
    -0.01671721786260605,
    0.10294206440448761,
    -0.015564246103167534,
    -0.13073134422302246,
    -0.07141166925430298,
    -0.09148364514112473,
    0.02379043586552143,
    0.11460572481155396,
    -0.053441353142261505,
    0.17398129403591156,
    0.19840261340141296,
    0.04327598586678505,
    -0.0026963225100189447,
    -0.08184517920017242,
    0.08541249483823776,
    0.15634803473949432,
    0.055561039596796036,
    0.0010153218172490597,
    0.025150034576654434,
    -0.0708567425608635,
    -0.1267186850309372,
    0.0952439159154892,
    -0.17398852109909058,
    -0.05659784376621246,
    0.02870778553187847,
    -0.03134630247950554,
    0.08794043213129044,
    0.08517219871282578,
    0.11479024589061737,
    -0.14438514411449432,
    0.1576608419418335,
    -0.050032321363687515,
    -0.13970518112182617,
    -0.10903280973434448,
    -0.03894735500216484,
    0.21436841785907745,
    -0.10437949746847153,
    -0.0803261548280716,
    -0.036352869123220444,
    -0.12856464087963104,
    0.049006279557943344,
    -0.2651269733905792,
    -0.010896645486354828,
    -0.07972733676433563,
    -0.08902045339345932,
    -0.12297563999891281,
    -0.030241403728723526,
    0.0031211550813168287,
    0.032340310513973236,
    -0.013959339819848537,
    0.011577787809073925,
    0.19960522651672363,
    -0.012174969539046288,
    0.25457295775413513,
    0.018791768699884415,
    0.06707780808210373,
    0.0326903760433197,
    -0.01692609116435051,
    -0.053090810775756836,
    -0.10390868782997131,
    -0.03729211166501045,
    -0.028785767033696175,
    -0.09901822358369827,
    0.08425049483776093,
    0.001856463961303234,
    -0.16211877763271332,
    -0.002689070301130414,
    0.046070169657468796,
    -0.22927212715148926,
    -0.09645404666662216,
    -0.050091713666915894,
    -0.06965562701225281,
    -0.04144936427474022,
    0.13920652866363525,
    -0.14819379150867462,
    -0.07443531602621078,
    0.05714091658592224,
    0.006495514418929815,
    -0.10827315598726273,
    0.05897608771920204,
    0.19476328790187836,
    0.16232721507549286,
    0.0007141737150959671,
    0.04582398384809494,
    0.03382088616490364,
    0.09136490523815155,
    0.027461174875497818,
    -0.17854700982570648,
    0.10975436121225357,
    0.028405645862221718,
    0.16495858132839203,
    0.0875585600733757,
    -0.0497366301715374,
    0.03304281458258629,
    -0.03398015350103378,
    -0.10106902569532394,
    0.005145371425896883,
    0.11886292695999146,
    -0.118407242000103,
    0.12163002043962479,
    -0.11215227842330933,
    -0.01750502735376358,
    0.06907276809215546,
    0.0640622228384018,
    -0.11053510755300522,
    -0.1126038059592247,
    0.2651269733905792,
    -0.007888628169894218,
    -0.11459603160619736,
    0.048717137426137924,
    -0.03356514871120453,
    0.17645777761936188,
    -0.11550404131412506,
    -0.13393297791481018,
    0.19050906598567963,
    0.009780521504580975,
    -0.05105338245630264,
    -0.026122644543647766,
    0.15897051990032196,
    0.010650582611560822,
    0.17638669908046722,
    -0.004359383136034012,
    -0.15018808841705322,
    0.17221808433532715,
    0.04680261015892029,
    -0.005908263381570578,
    -0.048926495015621185,
    -0.03528675064444542,
    0.022785091772675514,
    -0.15127268433570862,
    -0.18823668360710144,
    0.0632963553071022,
    -0.019132500514388084,
    0.10625172406435013,
    -0.008584229275584221,
    0.026743778958916664,
    -0.04980850964784622,
    -0.03328261151909828,
    -0.020730582997202873,
    0.17508433759212494,
    -0.04515833780169487,
    -0.006265714764595032,
    -0.1775488257408142,
    -0.10794995725154877,
    0.03519485890865326,
    -0.1380917727947235,
    0.02018321305513382,
    0.1564754843711853,
    0.009459756314754486,
    0.2135789394378662,
    -0.05573144182562828,
    -0.07272395491600037,
    -0.09532936662435532,
    -0.2303524762392044,
    0.12330254167318344,
    -0.132132425904274,
    -0.011301994323730469,
    -0.10781649500131607,
    0.052397534251213074,
    -0.05805916711688042,
    -0.0008338570478372276,
    0.06084967777132988,
    0.04202823340892792,
    -0.09996704012155533,
    0.03129572048783302,
    -0.14793740212917328,
    -0.0431404635310173,
    -0.0006247367127798498,
    -0.04673617705702782,
    -0.09473978728055954,
    -0.0241644699126482,
    -0.05288013443350792,
    0.09689288586378098,
    -0.06454070657491684,
    0.04914119094610214,
    -0.10226064920425415,
    0.14334964752197266,
    0.004022454842925072,
    0.1589621752500534,
    0.024650057777762413,
    0.034433599561452866,
    -0.2535424828529358,
    -0.2614416480064392,
    0.020446619018912315,
    0.024256577715277672,
    0.09981922805309296,
    0.13248305022716522,
    0.03733973205089569,
    -0.01605176366865635,
    0.02218334935605526,
    0.046961355954408646,
    -0.06378112733364105,
    -0.07358188182115555,
    -0.0236116461455822,
    0.07661961019039154,
    0.047755852341651917,
    0.04584610462188721,
    0.1904737651348114,
    0.04435467720031738,
    -0.06214851886034012,
    0.2262173742055893,
    -0.10088546574115753,
    -0.1096162497997284,
    -0.03802698850631714,
    -0.1004348173737526,
    0.07262412458658218,
    -0.09084280580282211,
    0.20457151532173157,
    -0.05429406836628914,
    -0.0399852879345417,
    -0.15376229584217072,
    0.04352680221199989,
    -0.018466241657733917,
    0.039222486317157745,
    -0.09583210945129395,
    0.17095373570919037,
    -0.01998613402247429,
    0.0077814809046685696,
    0.005432623438537121,
    0.25269147753715515,
    0.017534244805574417,
    0.2940874695777893,
    -0.13736997544765472,
    0.13609060645103455,
    0.22540795803070068,
    0.08746345341205597,
    -0.09790883958339691,
    0.06886789202690125,
    0.0969938188791275,
    -0.11018916219472885,
    0.05464218184351921,
    0.09821751713752747,
    -0.038993384689092636,
    0.06459765881299973,
    0.02622089348733425,
    -0.041008733212947845,
    -0.17439357936382294,
    0.022530127316713333,
    -0.12315649539232254,
    0.07519570738077164,
    -0.16189055144786835,
    0.2078801393508911,
    -0.12542270123958588,
    0.047229599207639694,
    0.17364341020584106,
    -0.027645854279398918,
    -0.011900301091372967,
    0.18031053245067596,
    -0.11546656489372253,
    0.12846577167510986,
    0.09243563562631607,
    0.026272384449839592,
    0.0062972018495202065,
    -0.04345383495092392,
    -0.002351105445995927,
    0.11804655939340591,
    0.12214064598083496,
    0.07370240986347198,
    0.0009648358100093901,
    -0.11444855481386185,
    0.04874902218580246,
    -0.191323384642601,
    -0.06551983207464218,
    0.15047457814216614,
    -0.09664633125066757,
    0.026351144537329674,
    0.08654982596635818,
    -0.1492072492837906,
    -0.028350522741675377,
    -0.009117381647229195,
    0.11084701120853424,
    0.0010815219720825553,
    -0.10359852015972137,
    -0.03709052875638008,
    -0.033772021532058716,
    0.1714230179786682,
    0.016627971082925797,
    -0.0016412923578172922,
    -0.04699116200208664,
    0.015882207080721855,
    0.005503226071596146,
    -0.009923036210238934,
    -0.07880353182554245,
    0.02738320268690586,
    -0.0026452101301401854,
    0.1801649034023285,
    0.03899125009775162,
    -0.03189845383167267,
    -0.08277054876089096,
    -0.08132362365722656,
    -0.030799055472016335,
    0.1360674351453781,
    0.2403523027896881,
    -0.08044963330030441,
    0.04096316173672676,
    0.17985588312149048,
    0.04542868211865425,
    0.04783470556139946,
    0.04228006675839424,
    -0.09534282982349396,
    0.16340677440166473,
    0.08986815810203552,
    -0.07633247971534729,
    0.10626963526010513,
    -0.13100937008857727,
    -0.03846625238656998,
    -0.013776524923741817,
    -0.043161679059267044,
    -0.02636331133544445,
    -0.21393415331840515,
    0.10605205595493317,
    0.0781368538737297,
    -0.029293633997440338,
    -0.08257751166820526,
    0.12069230526685715,
    -0.028663376346230507,
    0.029248759150505066,
    0.0664476603269577,
    0.037731047719717026,
    -0.2651269733905792,
    -0.0038698259741067886,
    -0.04076574742794037,
    -0.047793906182050705,
    -0.2441377192735672,
    0.001323090516962111,
    0.025403598323464394,
    0.025635411962866783,
    -0.015771271660923958,
    -0.05166834220290184,
    -0.11302820593118668,
    -0.0022390522062778473,
    -0.2651269733905792,
    -0.014112819917500019,
    0.05228975787758827,
    0.025365278124809265,
    -0.1236085295677185,
    0.014203925617039204,
    0.15880988538265228,
    -0.004069018643349409,
    0.17299531400203705,
    0.1691664755344391,
    -0.11438341438770294,
    0.002574703423306346,
    0.19640317559242249,
    0.23383016884326935,
    -0.08470761775970459,
    -0.1427014321088791,
    0.0328407846391201,
    0.010305102914571762,
    0.0772995874285698,
    0.11226650327444077,
    -0.28023046255111694,
    0.009604706428945065,
    0.032859232276678085,
    -0.05531666427850723,
    0.06528511643409729,
    0.1111980751156807,
    0.027566680684685707,
    0.08183164149522781,
    0.09018347412347794,
    -0.060993097722530365,
    0.08860217779874802,
    0.012486324645578861,
    -0.04636826738715172,
    0.03584570437669754,
    -0.022246485576033592,
    -0.002215743763372302,
    0.040238555520772934,
    -0.08049983531236649,
    0.03942486271262169,
    -0.10852672159671783,
    0.00914763193577528,
    -0.013057515025138855,
    -0.1261221170425415,
    -0.00874085258692503,
    -0.0026505093555897474,
    0.07559565454721451,
    0.09951038658618927,
    0.015041150152683258,
    3.461820597294718e-05,
    -0.13939526677131653,
    -0.21959710121154785,
    -0.042841020971536636,
    0.06917925179004669,
    -0.08119924366474152,
    -0.11553359031677246,
    -0.14093440771102905,
    0.061639077961444855,
    0.006310454104095697,
    0.010468537919223309,
    -0.02573142759501934,
    -0.017230024561285973,
    -0.10323552787303925,
    0.061305154114961624,
    -0.04560457170009613,
    -0.06383194774389267,
    0.044759273529052734,
    -0.03758024051785469,
    0.08199092000722885,
    -0.0006077549769543111,
    0.0006194875459186733,
    0.07128293812274933,
    0.050707001239061356,
    0.19131235778331757,
    -0.0740085169672966,
    0.056072335690259933,
    0.02021818980574608,
    -0.039828866720199585,
    -0.13374555110931396,
    0.09796347469091415,
    -0.012354162521660328,
    0.1767776608467102,
    0.08107379078865051,
    -0.16352954506874084,
    -0.02634938433766365,
    0.01997869648039341,
    -0.17501910030841827,
    -0.01175620872527361,
    -0.13885286450386047,
    0.07651989161968231,
    -0.032730042934417725,
    0.004652032628655434,
    -0.06220681592822075,
    0.10906455665826797,
    0.1405087113380432,
    0.07481031119823456,
    0.04751554876565933,
    0.006125075742602348,
    0.040352627635002136,
    0.08189627528190613,
    0.2048734426498413,
    -0.08726666867733002,
    -0.01843320205807686,
    -0.010587014257907867,
    0.07247249782085419,
    -0.10513079166412354,
    0.03771950677037239,
    -0.007753367070108652,
    0.13949719071388245,
    -0.01060420460999012,
    0.07601488381624222,
    0.054958708584308624,
    0.08187084645032883,
    0.20266787707805634,
    -0.1869911104440689,
    -0.07380907982587814,
    -0.059940602630376816,
    0.011958017013967037,
    0.05087711289525032,
    0.07047683745622635,
    -0.23518478870391846,
    0.06502418220043182,
    -0.0522405169904232,
    -0.025950659066438675,
    0.036488525569438934,
    0.09252659231424332,
    0.12151996046304703,
    -0.08323316276073456,
    0.08970017731189728,
    -0.01577172242105007,
    0.06777120381593704,
    -0.07621298730373383,
    0.09238222241401672,
    -0.08143962174654007,
    0.19341669976711273,
    -0.14049696922302246,
    -0.0705883577466011,
    -0.1325971484184265,
    -0.1093093603849411,
    0.08698812872171402,
    0.07090016454458237,
    0.05239151790738106,
    0.05489056184887886,
    0.025101838633418083,
    0.08446033298969269,
    0.1099921241402626,
    -0.12065830081701279,
    0.008636711165308952,
    0.1427045464515686,
    -0.06066197156906128,
    0.16172656416893005,
    -0.03788480907678604,
    -0.01734538935124874,
    0.14786696434020996,
    -0.03264676779508591,
    -0.04702550545334816,
    0.10997559130191803,
    -0.05555371567606926,
    0.03201979026198387,
    -0.059841278940439224,
    -0.004425969906151295,
    -0.026803849264979362,
    0.15451937913894653,
    0.021350089460611343,
    -0.15975841879844666,
    -0.19749046862125397,
    -0.009975779801607132,
    -0.034720078110694885,
    0.14133094251155853,
    -0.08398990333080292,
    0.0347498394548893,
    0.14545811712741852,
    -0.174985870718956,
    -0.01696675643324852,
    0.1000455915927887,
    -0.11865421384572983,
    -0.08092382550239563,
    0.030564680695533752,
    0.22471097111701965,
    -0.13908083736896515,
    0.08762466907501221,
    0.15077564120292664,
    -0.04399150609970093,
    -0.0365714468061924,
    -0.13401859998703003,
    0.1954958140850067,
    -0.09722614288330078,
    -0.005760170053690672,
    0.005853547714650631,
    0.014438829384744167,
    -0.082768514752388,
    0.07049862295389175,
    0.12105696648359299,
    -0.12824882566928864,
    0.0745498389005661,
    0.01817360706627369,
    0.09145896136760712,
    0.021403366699814796,
    -0.0533592514693737,
    -0.0861801728606224,
    -0.07110753655433655,
    -0.03557482361793518,
    -0.04234209284186363,
    0.10573901981115341,
    0.05960504338145256,
    0.10430581867694855,
    0.04707981273531914,
    0.059182059019804,
    -0.25013965368270874,
    0.10363911837339401,
    -0.048558108508586884,
    0.08496958017349243,
    0.1599198430776596,
    0.05452827364206314,
    -0.17586712539196014,
    0.022168727591633797,
    0.038368675857782364,
    -0.1349620223045349,
    -0.009739606641232967,
    -0.013445916585624218,
    -0.18931791186332703,
    -0.02911686897277832,
    0.17309604585170746,
    -0.06923829019069672,
    0.01898292638361454,
    -0.10071001201868057,
    -0.046176448464393616,
    -0.0020940036047250032,
    -0.08874780684709549,
    0.023729711771011353,
    0.185373455286026,
    0.030618060380220413,
    0.047308549284935,
    0.06424244493246078,
    0.03213689103722572,
    0.017037129029631615,
    -0.16947409510612488,
    0.14193235337734222,
    0.15089298784732819,
    -0.022410977631807327,
    0.15673178434371948,
    0.18233226239681244,
    0.016295988112688065,
    0.0062822564505040646,
    -0.22232893109321594,
    -0.02142678014934063,
    0.0538489930331707,
    -0.17993494868278503,
    -0.11515678465366364,
    -0.07706119865179062,
    0.010210897773504257,
    -0.09056813269853592,
    -0.015935655683279037,
    -0.029125435277819633,
    0.025213366374373436,
    -0.017134565860033035,
    -0.09973239153623581,
    0.07000575959682465,
    -0.01637464202940464,
    0.03121223859488964,
    0.1642817109823227,
    -0.03789577633142471,
    -0.018668560311198235,
    0.014362173154950142,
    -0.034266117960214615,
    -0.07213222980499268,
    0.012792562134563923,
    0.05687763914465904,
    -0.02468843013048172,
    0.008669471368193626,
    0.07077106833457947,
    0.013943837024271488,
    0.05265249311923981,
    -0.06403987854719162,
    0.11997022479772568,
    0.10697279125452042,
    0.05973726138472557,
    -0.04253321513533592,
    0.012509385123848915,
    -0.016958706080913544,
    0.0976041704416275,
    -0.013116234913468361,
    -0.19133290648460388,
    -0.032244447618722916,
    0.09374917298555374,
    0.004642927087843418,
    -0.0015431593637913465,
    -0.06522199511528015,
    0.04681839048862457,
    0.05296219512820244,
    0.13861127197742462,
    -0.07067295908927917,
    -0.13186730444431305,
    -0.031922221183776855,
    -0.0965920016169548,
    0.11243005841970444,
    0.04974585399031639,
    -0.02297157421708107,
    -0.043953120708465576,
    -0.10700111836194992,
    0.047212764620780945,
    -0.047860559076070786,
    -0.0159695316106081,
    -0.021453555673360825,
    -0.1542280614376068,
    -0.05285826325416565,
    -0.1387469619512558,
    0.22610734403133392,
    0.00942571833729744,
    0.014270657673478127,
    -0.16932612657546997,
    0.12717249989509583,
    -0.13195432722568512,
    -0.06607935577630997,
    0.07695623487234116,
    -0.014129945077002048,
    -0.06783092021942139,
    0.05800441652536392,
    -0.04254051670432091,
    0.024650875478982925,
    0.15422825515270233,
    0.07698284834623337,
    0.03575192764401436,
    -0.007817204110324383,
    -0.1636071354150772,
    -0.014917517080903053,
    -0.16854210197925568,
    -0.0010774199618026614,
    -0.10030905157327652,
    -0.19733408093452454,
    -0.02106417529284954,
    0.054414860904216766,
    0.10092297196388245,
    -0.008006940595805645,
    -0.08824071288108826,
    0.037542734295129776,
    -0.0482238307595253,
    -0.08342650532722473,
    -0.07695422321557999,
    0.04670301079750061,
    0.033601369708776474,
    0.18518616259098053,
    -0.2514425218105316,
    0.12589417397975922,
    -0.07204590737819672,
    -0.13407564163208008,
    -0.2108580619096756,
    0.10320834815502167,
    -0.09640640765428543,
    0.17789803445339203,
    -0.02307511679828167,
    -0.038574423640966415,
    -0.1170707494020462,
    -0.11988084763288498,
    0.06639890372753143,
    -0.02896200120449066,
    -0.0461941733956337,
    0.005646819714456797,
    0.11521365493535995,
    0.039930135011672974,
    -0.08972003310918808,
    -0.02821931056678295,
    0.1366005390882492,
    -0.0037311322521418333,
    -0.0053993575274944305,
    -0.12173491716384888,
    -0.1788129061460495,
    0.051186513155698776,
    0.07344166934490204,
    0.08262882381677628,
    0.1179800033569336,
    -0.20388297736644745,
    0.21320006251335144,
    -0.003280926961451769,
    0.026006082072854042,
    -0.10827970504760742,
    -0.08975096791982651,
    -0.0499761737883091,
    -0.027979746460914612,
    0.007010729517787695,
    -0.11285276710987091,
    -0.14453743398189545,
    0.05734338238835335,
    -0.10419688373804092,
    0.02767285704612732,
    -0.005129577592015266,
    -0.008413709700107574,
    0.03928695246577263,
    0.11350684612989426,
    -0.002273277845233679,
    0.04148668423295021,
    -0.04016144573688507,
    -0.04771704971790314,
    0.14520661532878876,
    0.23087814450263977,
    0.08535023033618927,
    0.06249599531292915,
    -0.07376985251903534,
    0.1625591367483139,
    0.0015050944639369845,
    0.06936891376972198,
    -0.07334952056407928,
    -0.11322643607854843,
    -0.15758202970027924,
    -0.026897311210632324,
    -0.021063171327114105,
    0.0001256774994544685,
    -0.03631347417831421,
    -0.17750145494937897,
    0.05959557369351387,
    0.22168134152889252,
    -0.10971356928348541,
    -0.16736195981502533,
    0.15892526507377625,
    -0.05494032800197601,
    -0.009294356219470501,
    0.0073330276645720005,
    -0.15400193631649017,
    0.09726781398057938,
    0.053300339728593826,
    -0.01725134067237377,
    -0.039698872715234756,
    0.11060776561498642,
    0.07140861451625824,
    0.2084220051765442,
    -0.09588237851858139,
    0.014392859302461147,
    -0.0750022754073143,
    0.16042286157608032,
    0.13327230513095856,
    -0.17764779925346375,
    0.11904281377792358,
    0.007694218307733536,
    0.12645921111106873,
    0.08207453042268753,
    0.06001996994018555,
    0.1269943118095398,
    -0.16477559506893158,
    0.02919171191751957,
    0.16040807962417603,
    0.07233601063489914,
    0.10511113703250885,
    -0.012684166431427002,
    -0.15488240122795105,
    -0.14097702503204346,
    -0.1443258821964264,
    -0.18488380312919617,
    -0.04221784695982933,
    -0.1269422024488449,
    0.164109468460083,
    0.08818494528532028,
    -0.019163312390446663,
    -0.0784081220626831,
    0.1518779844045639,
    0.13139761984348297,
    0.07662928104400635,
    0.15929961204528809,
    -0.002174326218664646,
    0.028309157118201256,
    -0.040114641189575195,
    -0.08359351009130478,
    0.021150201559066772,
    -0.034884292632341385,
    0.06397911161184311,
    0.12221524864435196,
    0.11019700765609741,
    -0.10797206312417984,
    0.028496483340859413,
    -0.02796565368771553,
    0.04117083549499512,
    0.08028494566679001,
    0.06261425465345383,
    0.0009684401447884738,
    -0.012061620131134987,
    0.03956124559044838,
    -0.006060280837118626,
    0.03389918804168701,
    0.01998257264494896,
    0.016871746629476547,
    -0.09459810703992844,
    0.06368914991617203,
    -0.035428255796432495,
    -0.16837351024150848,
    -0.022411979734897614,
    -0.04458894953131676,
    -0.13003188371658325,
    -0.029974618926644325,
    -0.08791133016347885,
    -0.22283440828323364,
    0.049470335245132446,
    0.007880808785557747,
    0.08920172601938248,
    0.12491472065448761,
    0.11044909060001373,
    0.09782728552818298,
    -0.12985721230506897,
    0.2624949812889099,
    0.052089396864175797,
    0.12225203216075897,
    0.07317592948675156,
    0.03677096962928772,
    0.011707304045557976,
    0.04857771098613739,
    -0.002970109460875392,
    -0.025095418095588684,
    -0.21874146163463593,
    0.07564083486795425,
    -0.08464574068784714,
    0.006624615751206875,
    0.06725271791219711,
    0.044051337987184525,
    0.027459172531962395,
    0.08058249205350876,
    0.02896696887910366,
    -0.10114395618438721,
    -0.052855730056762695,
    0.11737073957920074,
    -0.17043757438659668,
    0.12489944696426392,
    -0.09770862013101578,
    -0.01255684532225132,
    -2.5482904675300233e-05,
    -0.11493723839521408,
    -0.09166514128446579,
    -0.18090316653251648,
    -0.019455712288618088,
    -0.03898460790514946,
    -0.04703846201300621,
    0.1169709712266922,
    0.17891761660575867,
    -0.0024376411456614733,
    -0.09618394076824188,
    0.25284355878829956,
    -0.1105457991361618,
    -0.05653870850801468,
    0.05224336311221123,
    0.242821604013443,
    -0.028588512912392616,
    0.018520956858992577,
    0.08795999735593796,
    -0.07994202524423599,
    0.048813965171575546,
    0.02132141962647438,
    -0.06489699333906174,
    -0.012520727701485157,
    -0.03731953352689743,
    0.03637761250138283,
    0.07018349319696426,
    0.1271599531173706,
    0.021733319386839867,
    0.1259607970714569,
    0.15212558209896088,
    0.06227179989218712,
    0.039515722543001175,
    0.01593908667564392,
    0.10508116334676743,
    0.018638387322425842,
    0.2562979459762573,
    0.030908023938536644,
    0.003487024921923876,
    -0.10380887240171432,
    -0.038819342851638794,
    -0.11860692501068115,
    0.03960437700152397,
    -0.09614809602499008,
    -0.27998867630958557,
    0.05155715346336365,
    -0.051013462245464325,
    -0.06622999161481857,
    0.1112864539027214,
    -0.026855245232582092,
    0.12997941672801971,
    -0.03664359450340271,
    0.11027967184782028,
    0.08176858723163605,
    -0.1909027248620987,
    -0.024298861622810364,
    0.06247400864958763,
    0.2651269733905792,
    0.0849430039525032,
    -0.09635501354932785,
    -0.13958945870399475,
    -0.25784558057785034,
    -0.05966918542981148,
    -0.07067868858575821,
    -0.012597239576280117,
    -0.0719725489616394,
    -0.09516214579343796,
    -0.03310481086373329,
    -0.27998867630958557,
    0.0006936336285434663,
    -0.0388546921312809,
    -0.130890354514122,
    0.013258789665997028,
    -0.024669939652085304,
    -0.001553944661282003,
    -0.04019695520401001,
    -0.009388395585119724,
    0.00663722213357687,
    0.11355278640985489,
    -0.037616413086652756,
    0.05015361309051514,
    -0.03594033047556877,
    -0.007970818318426609,
    0.18063098192214966,
    -0.11184459179639816,
    -0.13923604786396027,
    -0.10374993085861206,
    -0.006779425777494907,
    -0.05443834885954857,
    0.018615348264575005,
    -0.22747217118740082,
    -0.030395004898309708,
    0.08329690247774124,
    -0.17490723729133606,
    -0.055948954075574875,
    0.023258080706000328,
    -0.12695103883743286,
    0.16677841544151306,
    -0.029730278998613358,
    -0.025357520207762718,
    -0.0511176660656929,
    0.10948910564184189,
    0.08437908440828323,
    0.0070954966358840466,
    -0.060117512941360474,
    0.26704466342926025,
    0.23808564245700836,
    -0.06748966127634048,
    0.15028749406337738,
    -0.19402533769607544,
    -0.018329834565520287,
    -0.19647110998630524,
    -0.040263209491968155,
    -0.003798827063292265,
    0.002121273661032319,
    0.16154301166534424,
    -0.002375211101025343,
    -0.009345680475234985,
    0.1029258519411087,
    0.15070663392543793,
    -0.14410869777202606,
    0.14328959584236145,
    0.030708620324730873,
    -0.0216250978410244,
    0.016859622672200203,
    0.05995548516511917,
    -0.059349656105041504,
    -0.054741643369197845,
    -0.006978872697800398,
    0.003658380825072527,
    0.011981484480202198,
    -0.15051978826522827,
    -0.058378882706165314,
    0.04122799262404442,
    0.17383310198783875,
    0.005034526344388723,
    0.008899351581931114,
    0.13588301837444305,
    -0.117972731590271,
    0.014088056050240993,
    0.0879530981183052,
    -0.06412961333990097,
    0.08662323653697968,
    -0.1036461591720581,
    0.12941496074199677,
    -0.06631145626306534,
    0.061389364302158356,
    -0.0865248590707779,
    -0.01073265727609396,
    0.02149103209376335,
    0.07211723178625107,
    0.08830136805772781,
    0.11541839689016342,
    0.01145054679363966,
    0.2651269733905792,
    0.11157405376434326,
    0.12254321575164795,
    0.047735437750816345,
    0.14630983769893646,
    -0.1370694786310196,
    0.08505097776651382,
    -0.15093503892421722,
    0.24252215027809143,
    -0.035494107753038406,
    0.09359975904226303,
    -0.0802299901843071,
    -0.05185161158442497,
    0.11828440427780151,
    0.046704914420843124,
    -0.10172688215970993,
    -0.21588678658008575,
    0.17063136398792267,
    0.045481126755476,
    0.09526879340410233,
    0.0030917294789105654,
    0.20470751821994781,
    0.029380783438682556,
    0.0594642236828804,
    0.03585459664463997,
    -0.0516626201570034,
    -0.07855109870433807,
    0.05969773605465889,
    0.14250876009464264,
    0.018568018451333046,
    0.08544590324163437,
    0.08226673305034637,
    -0.02829614467918873,
    0.11284320056438446,
    0.004090629983693361,
    -0.07080411165952682,
    -0.03185505419969559,
    0.021426362916827202,
    -0.08422008901834488,
    0.0636126920580864,
    0.0008217486902140081,
    -0.016080094501376152,
    -0.19368545711040497,
    -0.05704500153660774,
    0.011918294243514538,
    -0.1536218523979187,
    -0.0861559808254242,
    0.13880981504917145,
    -0.04593588411808014,
    -0.04555618390440941,
    -0.2970872223377228,
    0.06660056859254837,
    -0.1464410424232483,
    -0.11463861912488937,
    -0.1954699009656906,
    0.06762425601482391,
    -0.07079433649778366,
    0.10163646936416626,
    0.09289886057376862,
    -0.12423204630613327,
    0.0773845836520195,
    0.10646059364080429,
    -0.004199498798698187,
    -0.06388043612241745,
    -0.062343746423721313,
    0.07281968742609024,
    0.1549922525882721,
    0.04630393907427788,
    -0.10415760427713394,
    -0.2549528479576111,
    -0.00011352485307725146,
    0.18499408662319183,
    -0.0471881628036499,
    0.014119214378297329,
    -0.04736601188778877,
    0.00431867828592658,
    -0.06901834160089493,
    -0.010609849356114864,
    -0.123406320810318,
    0.2053336203098297,
    -0.026862815022468567,
    -0.07706181704998016,
    -0.11232204735279083,
    0.09959705173969269,
    0.1663520783185959,
    0.12645627558231354,
    -0.21195843815803528,
    -0.021464435383677483,
    -0.032843414694070816,
    0.02893163077533245,
    -0.046973492950201035,
    0.17350731790065765,
    0.07435983419418335,
    0.20026268064975739,
    -0.012663442641496658,
    -0.062026526778936386,
    -0.19499696791172028,
    -0.023345965892076492,
    -0.059054501354694366,
    0.09630089998245239,
    0.05918916314840317,
    0.07676145434379578,
    -0.09413054585456848,
    0.029317444190382957,
    0.06818793714046478,
    0.07031624764204025,
    -0.06395987421274185,
    0.13397283852100372,
    -0.17753508687019348,
    0.10886847972869873,
    0.002848623553290963,
    0.048480961471796036,
    0.1774582415819168,
    -0.13044707477092743,
    -0.04358133301138878,
    -0.0314176008105278,
    -0.08142979443073273,
    0.030076736584305763,
    -0.18576085567474365,
    -0.07131609320640564,
    0.23241032660007477,
    0.11106918007135391,
    0.04062705114483833,
    0.10636552423238754,
    -0.1193428561091423,
    0.033045027405023575,
    -0.10006355494260788,
    0.04216434806585312,
    0.022281760349869728,
    0.0,
    0.0,
    -0.0031433175317943096,
    0.0,
    0.0,
    0.0,
    0.0,
    -0.02767961286008358,
    0.0,
    0.016847390681505203,
    -0.01732170209288597,
    0.034556493163108826,
    0.08470737934112549,
    0.05533405393362045,
    0.0,
    0.0,
    -0.015679126605391502,
    0.049744680523872375,
    -0.07750234007835388,
    0.04444519802927971,
    -0.11743302643299103,
    -0.07458756864070892,
    0.22706075012683868,
    0.2651269733905792,
    -0.14053983986377716,
    -0.1390545517206192,
    -0.04060075059533119,
    0.031514786183834076,
    0.19671019911766052,
    0.10682687163352966,
    0.023734075948596,
    0.013313434086740017,
    0.04180646315217018,
    0.09392014145851135,
    0.06443807482719421,
    0.10410454869270325,
    0.0034642505925148726,
    -0.07590302079916,
    0.052319563925266266,
    -0.12722736597061157,
    0.2597430646419525,
    0.010592333972454071,
    -0.05103232339024544,
    0.04253113642334938,
    0.12008773535490036,
    0.18974974751472473,
    -0.06439710408449173,
    -0.2503069341182709,
    -0.004338654223829508,
    -0.09016213566064835,
    -0.039296459406614304,
    0.007256557233631611,
    -0.06323539465665817,
    0.031090157106518745,
    0.030768822878599167,
    0.005863298196345568,
    -0.007210920564830303,
    0.10847750306129456,
    -0.1782074123620987,
    0.26172542572021484,
    0.06504715234041214,
    0.1182740181684494,
    -0.015306567773222923,
    -0.09281770884990692,
    0.14115503430366516,
    -0.003569727996364236,
    -0.01862473040819168,
    -0.022121630609035492,
    0.036823615431785583,
    0.06181001663208008,
    0.10964484512805939,
    0.04386323690414429,
    0.13018496334552765,
    0.12720653414726257,
    0.1303318291902542,
    0.013670479878783226,
    -0.010742171667516232,
    0.11074884235858917,
    0.1844961941242218,
    0.09112528711557388,
    -0.24465951323509216,
    0.08941547572612762,
    -0.05450727790594101,
    -0.08555726706981659,
    -0.09916955232620239,
    0.1991315484046936,
    -0.11019236594438553,
    0.030320851132273674,
    0.19939887523651123,
    0.008807957172393799,
    0.0709010511636734,
    0.0634421706199646,
    -0.042793288826942444,
    0.06332524120807648,
    0.13363388180732727,
    0.019706008955836296,
    0.09209063649177551,
    0.055289845913648605,
    0.008302448317408562,
    0.02417280152440071,
    0.07249254733324051,
    -0.0413348563015461,
    -0.13906072080135345,
    0.026532594114542007,
    -0.0038755096029490232,
    0.01748245395720005,
    0.02822794020175934,
    0.1316772848367691,
    -0.15664911270141602,
    -0.06428737938404083,
    -0.08793164044618607,
    -0.01977028325200081,
    0.0288033876568079,
    -0.03340572118759155,
    0.1195962205529213,
    -0.16580018401145935,
    -0.22841864824295044,
    0.19474267959594727,
    0.059657808393239975,
    0.02053450606763363,
    -0.03645329549908638,
    0.05264934152364731,
    -0.2182004153728485,
    0.19325080513954163,
    -0.2651269733905792,
    -0.1520642340183258,
    -0.10913059115409851,
    0.13505125045776367,
    0.058097705245018005,
    -0.19843345880508423,
    -0.0012699086219072342,
    -0.2651269733905792,
    0.14333519339561462,
    -0.1595762073993683,
    -0.08303318172693253,
    -0.06072848662734032,
    0.10796307027339935,
    -0.10742120444774628,
    0.17510464787483215,
    0.2672572433948517,
    -0.16199342906475067,
    0.0613529272377491,
    0.11173790693283081,
    -0.0103948675096035,
    -0.03986968845129013,
    -0.10914945602416992,
    0.0003198334889020771,
    0.18163691461086273,
    0.14739756286144257,
    0.0018606380326673388,
    -0.040476225316524506,
    0.032115399837493896,
    0.18845275044441223,
    0.05368718132376671,
    0.009020049124956131,
    0.17040470242500305,
    -0.17851120233535767,
    0.052535537630319595,
    -0.14592908322811127,
    0.1973988562822342,
    -0.12657205760478973,
    -0.056049644947052,
    0.14022473990917206,
    0.010857287794351578,
    -0.010447239503264427,
    -0.11988477408885956,
    -0.06725411862134933,
    0.19286519289016724,
    0.00747581385076046,
    -0.008218727074563503,
    -0.21812541782855988,
    0.05025714635848999,
    0.010279212146997452,
    0.2651269733905792,
    0.07981006801128387,
    0.06716375797986984,
    -0.09902786463499069,
    0.16729101538658142,
    0.07752109318971634,
    -0.09042615443468094,
    -0.08245339244604111,
    0.05470352992415428,
    -0.05506649613380432,
    0.0713936984539032,
    -0.11609319597482681,
    0.05852093920111656,
    -0.033089783042669296,
    0.07503542304039001,
    -0.011125904507935047,
    -0.11873329430818558,
    0.14256055653095245,
    0.061906278133392334,
    0.08283668756484985,
    -0.05473163351416588,
    0.22793491184711456,
    0.07895761728286743,
    -0.025749308988451958,
    -0.13775195181369781,
    -0.08197653293609619,
    -0.08118422329425812,
    0.057128727436065674,
    0.09962134808301926,
    0.199641153216362,
    0.06976474821567535,
    0.03729595988988876,
    -0.26704466342926025,
    -0.03247998282313347,
    0.10005208104848862,
    -0.2651269733905792,
    -0.03990769386291504,
    0.1855713129043579,
    0.07109053432941437,
    0.24094198644161224,
    -0.04095885157585144,
    -0.10821933299303055,
    -0.027885880321264267,
    -0.0986027643084526,
    -0.002309636678546667,
    -0.026789743453264236,
    -0.058539506047964096,
    0.08614319562911987,
    0.10444410145282745,
    -0.024339843541383743,
    -0.05014244094491005,
    -0.14847934246063232,
    -0.09989024698734283,
    -0.01177295669913292,
    -0.10222312808036804,
    0.0020648506470024586,
    0.12324241548776627,
    -0.211990088224411,
    -0.1594894826412201,
    0.0622430294752121,
    -0.13403438031673431,
    0.22284318506717682,
    0.009105297736823559,
    0.19049657881259918,
    -0.030461430549621582,
    0.021188853308558464,
    0.05768126621842384,
    0.1188635528087616,
    -0.031440626829862595,
    0.093131884932518,
    0.08228603005409241,
    0.06734022498130798,
    -0.10780072957277298,
    0.010285572148859501,
    0.09771402180194855,
    0.09337089955806732,
    -0.1994669884443283,
    -0.03225359693169594,
    0.08048389106988907,
    0.030446846038103104,
    0.08698539435863495,
    -0.19130277633666992,
    0.04679310321807861,
    -0.048826664686203,
    -0.007369224913418293,
    -0.10409275442361832,
    0.15639646351337433,
    -0.01580696366727352,
    -0.15144643187522888,
    0.02672235295176506,
    0.05647238343954086,
    0.12730753421783447,
    0.18111373484134674,
    0.03438028693199158,
    -0.0032322427723556757,
    0.11041663587093353,
    0.005867374129593372,
    0.1763935536146164,
    -0.12961454689502716,
    0.17164935171604156,
    -0.1790107786655426,
    0.03869158774614334,
    0.05133410170674324,
    0.03711622953414917,
    0.06031625717878342,
    0.17537584900856018,
    -0.10584670305252075,
    0.0993320643901825,
    -0.026833103969693184,
    -0.24346956610679626,
    0.049778133630752563,
    0.1349654197692871,
    -0.08734920620918274,
    -0.042732007801532745,
    -0.16782008111476898,
    0.02885471284389496,
    -0.16040675342082977,
    -0.01624293066561222,
    0.1324710100889206,
    -0.010758696123957634,
    -0.030136331915855408,
    -0.01585468277335167,
    0.048341020941734314,
    -0.1833542436361313,
    0.027561921626329422,
    0.10247168689966202,
    0.052552420645952225,
    0.04561146721243858,
    -0.141813725233078,
    0.04641454294323921,
    -0.11067765951156616,
    0.21169130504131317,
    -0.07515144348144531,
    0.05642952024936676,
    -0.09831360727548599,
    0.023301180452108383,
    0.04162556305527687,
    -0.2651269733905792,
    -0.030310964211821556,
    -0.0744682028889656,
    -0.21253685653209686,
    0.17962288856506348,
    0.07049252092838287,
    -0.0727778896689415,
    -0.06490933895111084,
    -0.04355224594473839,
    -0.09377125650644302,
    0.13143467903137207,
    0.21229615807533264,
    -0.06227437034249306,
    0.007007615175098181,
    -0.013520805165171623,
    -0.0520593635737896,
    -0.09932443499565125,
    0.18878453969955444,
    0.019134093075990677,
    -0.0871981680393219,
    -0.039130937308073044,
    0.017170745879411697,
    -0.19446979463100433,
    0.1095103994011879,
    0.007931903004646301,
    0.017512544989585876,
    0.05368857458233833,
    -0.13922007381916046,
    -0.19022424519062042,
    -0.0060381474904716015,
    0.05790122598409653,
    0.15914440155029297,
    0.18686595559120178,
    0.05032351613044739,
    0.01845506951212883,
    0.20860116183757782,
    0.15439780056476593,
    -0.24826791882514954,
    0.02774883434176445,
    -0.12549377977848053,
    -0.08183401823043823,
    0.09169135242700577,
    -0.06902503222227097,
    0.04837876558303833,
    -0.17192982137203217,
    0.03527241200208664,
    -0.054095108062028885,
    -0.06303037703037262,
    0.09485241770744324,
    -0.1215071752667427,
    -0.13394790887832642,
    0.1153525859117508,
    0.089175283908844,
    0.08715716749429703,
    -0.1662442982196808,
    -0.10402265936136246,
    0.02181687392294407,
    0.005912180989980698,
    -0.040927302092313766,
    0.14281201362609863,
    -0.08839879184961319,
    0.03617946431040764,
    -0.06129653751850128,
    -0.16791993379592896,
    -0.12516683340072632,
    0.06022011861205101,
    0.029895251616835594,
    0.09094882011413574,
    0.026561705395579338,
    0.014670574106276035,
    0.008272867649793625,
    -0.13152438402175903,
    0.16187787055969238,
    0.0038192812353372574,
    0.11114273965358734,
    0.24291695654392242,
    -0.06711043417453766,
    -0.20679497718811035,
    0.2651269733905792,
    -0.11350525915622711,
    -0.05649135634303093,
    -7.409066165564582e-05,
    0.06793010979890823,
    0.11666803061962128,
    0.11876770853996277,
    0.2307882159948349,
    -0.0031085433438420296,
    -0.10521037876605988,
    -0.11927346885204315,
    0.12166811525821686,
    -0.21501080691814423,
    0.19085679948329926,
    -0.017470814287662506,
    0.06888256222009659,
    -0.1569250524044037,
    -0.06466848403215408,
    0.2651269733905792,
    0.0740552619099617,
    0.05729208514094353,
    0.011506780982017517,
    -0.07214660197496414,
    0.17751245200634003,
    -0.016587281599640846,
    -0.21424521505832672,
    -0.08774495869874954,
    -0.05264909937977791,
    0.0022445248905569315,
    -0.19880080223083496,
    0.21008709073066711,
    0.15219727158546448,
    -0.04646898806095123,
    0.2678068280220032,
    -0.09048283845186234,
    0.13990044593811035,
    -0.09956133365631104,
    -0.0923614352941513,
    -0.1499844342470169,
    -0.22547674179077148,
    -0.1337495744228363,
    -0.016797833144664764,
    0.29394638538360596,
    0.03510056808590889,
    -0.06953801214694977,
    0.10685774683952332,
    -0.044987961649894714,
    -0.0007888395339250565,
    -0.1260046660900116,
    0.14477260410785675,
    0.24198365211486816,
    0.0608891062438488,
    -0.14377754926681519,
    -0.06770069897174835,
    -0.12188415974378586,
    -0.20512254536151886,
    -0.10344753414392471,
    -0.0827629342675209,
    -0.04942324757575989,
    -0.09937020391225815,
    -0.09503583610057831,
    -0.060840968042612076,
    -0.1856018453836441,
    -0.10469809919595718,
    0.07919777929782867,
    -0.09327017515897751,
    0.08518924564123154,
    -0.04373200610280037,
    0.043998684734106064,
    -0.03734225779771805,
    -0.07408346980810165,
    -0.01569760963320732,
    0.059427350759506226,
    -0.054776880890131,
    -0.0880025252699852,
    0.07601898908615112,
    -0.1669462025165558,
    0.12282481789588928,
    0.021874329075217247,
    0.04258067160844803,
    -0.14644533395767212,
    -0.27998867630958557,
    0.22671052813529968,
    -0.0038811666890978813,
    0.16077393293380737,
    -0.23248201608657837,
    -0.10527867823839188,
    0.2309403270483017,
    -0.0479358434677124,
    -0.2651269733905792,
    -0.04407614469528198,
    -0.06091941148042679,
    -0.05739231035113335,
    -0.05968330055475235,
    -0.03923827037215233,
    -0.13792861998081207,
    0.05650932341814041,
    -0.20100778341293335,
    -0.05929548665881157,
    -0.20497944951057434,
    -0.023318234831094742,
    -0.06761561334133148,
    0.030306976288557053,
    0.03159080073237419,
    -0.062023915350437164,
    0.06762159615755081,
    -0.11045687645673752,
    0.020243041217327118,
    0.07150542736053467,
    -0.06949601322412491,
    -0.06841369718313217,
    0.1262837052345276,
    0.08479965478181839,
    -0.03468085080385208,
    -0.25468024611473083,
